GIS
12
-0.3843477353473901
2
merge
dontMerge
3
2 0
134 0 1
26 1
162
subtype=Be-Born
overlap=Instrument:5
nomAnchor
subtype=Attack
anchor=war/n
anchorMatch
subtype=Sentence
anchor=sentence/n
distance=9
distance=6
distance=0
conflict=Crime:5
conflict=Sentence:5
distance=8
conflict=Crime:4
distance=2
subtype=Appeal
anchor=appeal/n
subtype=Elect
anchor=election/n
subtype=Meet
conflict=Time-Within:1
distance=1
subtype=Marry
overlap=Person:5
subtype=Transport
conflict=Crime:1
distance=3
anchor=invasion/n
distance=4
anchor=attack/n
conflict=Attacker:0
overlap=Place:1
overlap=Place:4
overlap=Place:5
conflict=Place:0
conflict=Attacker:2
anchor=destroy
conflict=Attacker:3
conflict=Attacker:4
anchor=hit
conflict=Place:2
anchor=marriage/n
conflict=Person:5
conflict=Place:1
conflict=Attacker:1
conflict=Target:5
conflict=Instrument:4
distance=5
conflict=Attacker:5
anchor=fighting/n
subtype=Die
anchor=kill
anchor=shoot
distance=7
conflict=Instrument:3
conflict=Target:3
conflict=Target:2
anchor=drop
anchor=lob
conflict=Victim:5
overlap=Place:0
conflict=Entity:5
anchor=talk/n
overlap=Entity:5
anchor=meeting/n
conflict=Time-Within:0
overlap=Defendant:5
conflict=Place:5
conflict=Place:3
conflict=Place:4
conflict=Entity:0
anchor=meet
anchor=summit/n
conflict=Artifact:5
overlap=Artifact:5
conflict=Destination:4
conflict=Destination:5
anchor=cross
subtype=Convict
anchor=convict
conflict=Time-Within:4
conflict=Time-Within:3
conflict=Crime:3
anchor=sentence
subtype=Trial-Hearing
anchor=try
anchor=visit/n
conflict=Instrument:5
conflict=Target:1
conflict=Time-Within:2
overlap=Attacker:5
overlap=Place:2
subtype=Charge-Indict
anchor=charge
overlap=Target:0
overlap=Defendant:0
anchor=take
anchor=fire
anchor=battle/n
subtype=End-Position
anchor=attack
anchor=strike/n
anchor=die
overlap=Target:5
conflict=Victim:4
overlap=Destination:5
anchor=trial/n
anchor=charge/n
overlap=Victim:4
conflict=Instrument:1
anchor=rape
subtype=Demonstrate
anchor=occupy
overlap=Attacker:2
overlap=Victim:5
subtype=Injure
conflict=Agent:5
overlap=Attacker:1
subtype=Arrest-Jail
anchor=arrest
anchor=fly
overlap=Target:4
anchor=bomb
anchor=blow
overlap=Time-Within:0
anchor=death/n
anchor=use
overlap=Destination:4
overlap=Attacker:4
overlap=Target:1
anchor=suicide/n
anchor=come
anchor=warfare/n
overlap=Artifact:3
anchor=wound/n
anchor=fight
conflict=Target:4
anchor=invade
conflict=Artifact:4
conflict=Artifact:1
conflict=Artifact:2
conflict=Entity:3
anchor=arrive
conflict=Defendant:5
conflict=Defendant:4
conflict=Sentence:4
anchor=enter
conflict=Target:0
anchor=fire/n
anchor=targeting
conflict=Instrument:2
anchor=combat/n
conflict=Agent:3
conflict=Agent:0
conflict=Victim:0
anchor=get
anchor=murder
anchor=casualty/n
conflict=Agent:1
conflict=Agent:2
conflict=Victim:3
22.762230809299353
29.12059551806478
0.2566559778735549
0.2101981512879023
-9.70510194461782
2.2367904702950163
5.628008109342865
-2.316546691225809
5.430466271459984
-2.0529529300969793
-4.519690677127162
1.4155291787556052
-5.929118097141639
2.2481075657988345
-16.403917342302208
2.323371299496367
-12.780901326942802
3.6966827922248693
6.9628963110423046
-7.264239572699161
-5.146110140922887
1.2564900365548326
3.2394447567539837
-0.22027088027435093
-9.793326617398375
2.1810430694404523
-40.72643639338355
6.265251163817295
-12.55060271596935
2.7388657087703816
-18.053422433004563
4.004385584519785
-1.4023597108246815
0.728506591096377
2.501431151940463
-1.3784763036551306
-4.382242279641061
1.9553118561432399
-4.553455006156009
1.956543841095336
-2.9481693874189343
1.0087728565118481
-4.226229763650064
1.4820913971958949
17.4984856088545
-11.264101738896231
5.138280631312455
-17.08338297097217
-8.000720740561883
1.8207285081505744
10.992262862507571
-9.404382996260885
-12.704300085484984
2.6619072628172367
14.474798391235055
-8.795983882395412
-9.23051736900211
2.0104294519000985
-5.341651483921231
1.2939117878620534
-5.9169814913730105
1.3595786114202246
-3.1568057382078103
1.282354818043454
14.959509458343147
-11.70301145689174
9.8248800904971
-6.992796048680825
2.7176641787517597
-0.0713095948871838
-8.17541319238192
1.4832402644358784
-2.027373705475231
0.8626140263312443
2.4922015906420514
0.277548109813194
-12.684194843255963
1.6810744150557482
-8.175591301737594
2.3846665557246407
-0.7001184738685136
0.7398733230635757
-21.346513970157897
6.430317093504555
-9.008865404775635
2.713563443187115
-1.6842867936469077
0.7573292385431207
10.124836201256388
-2.688235870615514
-9.396734927872219
1.570309747453984
4.55528394047308
0.48704872836146507
-14.607452056465235
2.332089787029568
-5.569829972314796
1.2277162639878991
-15.086787539466922
1.7778092202799285
-17.08826862332022
2.0620876286355436
-16.53067264904745
1.735383439585381
-36.93887202121946
2.4143418023949605
-36.73880818422895
2.215006599904093
4.520692643618374
-0.7463870167982054
-25.928781920545237
3.6215221739559134
-2.3829841671152603
0.9312740897041873
-6.394754938919603
1.2584477380841426
-23.068694435924076
2.264126518834386
-1.012757458375635
0.8109520843410145
5.51347642306817
-4.277196379731345
-2.0015203218559674
0.8895753225625795
-6.9136705979446615
1.6538617547858074
8.371285267983886
-5.250220302689552
2.650310424919348
-1.6390109010097418
2.175745604910808
-0.5456291901079626
14.651535888460238
-8.943372001618616
-13.673379045304278
2.383743653404315
-1.3263230555382264
0.6246213186439373
-24.5992973982758
3.069677851545557
18.624294531420492
-26.95727749165553
-26.58681262382187
4.721880112898846
6.593883137048044
-4.636887639057424
-12.7234783478649
1.6154880838778625
6.876535099746713
-2.9897638488588703
-8.041576435599021
1.429124300323716
-10.803944307738043
1.875127614587758
10.926168575989392
-3.051315563783418
-2.059902542740101
0.8727824673548192
-2.059902542740101
0.8727824673548192
8.848338531215008
-2.8660774821361925
7.020549022126233
-1.3076548315198253
-15.421701400384375
2.713217723910575
0.08619820130928625
0.7621448253195635
2.081391581968542
-1.493805266769838
-12.160043470600026
3.839142346833004
14.634218585678294
-2.7721111036385073
-17.446241736936912
3.356840294473356
4.004978940058319
-0.2664149191661491
-0.17595338416073347
0.5143530091241781
5.758518220313651
-6.295986061003816
7.699176997211706
-14.30445116300255
-2.6750933698434074
1.2033840308027757
-9.176698951267245
2.3557676108895294
-1.7986814790055656
2.501166746206284
10.582401944622418
-8.226881566177033
5.216839277383619
-3.004428159608877
-13.77387737261696
2.9315541752127627
-2.6627903113466433
1.1196521812261286
0.03816286225445009
3.7856749549371935
-14.602569981877974
4.441638555710766
7.694951257362574
-3.106455793748346
0.1360652167482841
0.5018765455447358
16.872301283139752
-17.689418597542996
5.912683544704313
-0.5950826549122565
4.264833674220515
-0.5486056520878133
8.568821931204475
-17.23063362557008
6.680401430209347
-8.144691391188157
7.581393787390744
-20.32648990129615
-4.143967496920885
1.6356290674989338
-4.134251009025051
1.6193921691395234
7.702212020535797
-6.614806762200976
1.716572568032233
-0.26796217902605457
2.8915682904992166
-2.157009046073438
21.18534015950597
-18.6381415584336
-9.123886103815982
6.636822268952159
17.54425546134163
-2.077055643386201
-19.999950704446128
6.071437495172333
-6.312351006988765
2.5759244184463572
-6.312351006988765
2.5759244184463572
3.323603498625892
-0.4327989315451959
7.7445802246446425
-16.270044950476464
-3.4548250232267974
1.2342530478223093
10.85355056595052
-9.501064028280078
13.982887644799183
-11.257183095820727
-7.928206966233296
1.323464980513052
4.535044728301092
-1.5368334898676017
10.362680865791907
-1.975011175045726
11.475039959986585
-20.921755849968328
2.167767765520402
-1.335327630142641
-6.522409147962014
7.80089344578339
-5.057147314633709
1.3456966081034405
-7.33402179141395
2.828105122510853
19.725639846480263
-3.7199163962363544
8.226400322842474
-1.3394105508411154
7.986710872291446
9.038855851408588
13.620325880147416
14.193712609448456
7.955699755882577
8.42820490148861
6.868800017852489
7.523977751498446
13.028794685779834
12.906228763366164
11.562295487181583
6.350566992012844
13.937507092457588
10.272092693998484
5.30681219006394
13.51551881812338
8.78923274937164
6.432489121368409
4.042163374634802
5.130585591050881
11.399063772556367
6.818527965588286
4.541570684066105
4.497639012880656
6.642959108064908
5.810975555277014
