GIS
7
-0.48316703793855
2
noEvent
event
3
8 0
125 0 1
12 1
145
hit
Agent+2
bear
step
deadly
riot
cause/n
cost
successRate=3
successRate=2
appeal/n
Time-Within+2
Place+0
Entity+2
Place+4
election/n
Time-Within+1
successRate=4
Time-Within+4
Place+3
Place+1
war/n
Time-Within+0
Attacker+0
successRate=5
Person+1
Time-Within+3
Attacker+4
Target+0
Attacker+1
Attacker+3
Attacker+2
combat/n
meeting/n
fighting/n
Place+2
Artifact+1
Target+1
bomb
Entity+0
attack/n
Instrument+1
Instrument+2
Entity+1
Destination+1
Entity+4
Artifact+4
Person+0
Artifact+0
Destination+2
trial/n
Target+2
Adjudicator+1
Person+4
conflict/n
postwar
Adjudicator+2
Defendant+2
terror/n
hearing/n
fight
Agent+0
Victim+0
suicide/n
bomber/n
Victim+4
Entity+3
Defendant+3
assault/n
murder/n
Agent+1
battle/n
explosion/n
Target+3
Instrument+0
strike/n
Instrument+4
Target+4
raid/n
raid
telephone/n
death/n
fire/n
shot/n
summit/n
Victim+2
Agent+3
Adjudicator+0
appeal
Defendant+4
birth/n
Defendant+0
fighter/n
wound
blast/n
war
wound/n
Person+2
warfare/n
entry/n
dead
Victim+3
Time-Holds+1
visit/n
terrorism/n
advance/n
violence/n
Instrument+3
born
kill
fire
Victim+1
Defendant+1
convict
Person+3
fine
meet
engage
donation/n
Giver+2
donate
Sentence+1
extradition/n
prosecution/n
Destination+4
killer/n
Plaintiff+0
wedding/n
wed
charge
enter
Buyer+3
seize
Time-Starting+0
Crime+4
demonstration/n
bankruptcy/n
Org+0
Org+1
injury/n
divorce/n
marriage/n
Giver+1
ambush
attack
11.683141205044963
17.757880864626184
12.091918114395
13.298147598010585
13.693952901678182
13.034929752194838
31.188736303844788
10.22817814118069
1.2387898979025067
-0.6557627516648914
3.6970808639299992
-5.444144066315088
-1.6993034925856119
0.8975285329807625
2.431759781075637
-3.253074022171172
-1.227150336774785
0.6989111869577234
3.846913649802345
-3.5632636044596437
0.12061596424480081
-0.04963785788034647
-9.515136854055864
2.519002618316124
1.7230732945659462
-1.4659175058517575
-2.394245656016658
1.3117841518863473
-8.358459005123146
2.4824463700789687
-1.6656043127057774
1.1642119492647116
-0.5188945840417878
0.4574211691549044
-13.339602749757159
2.552861628629443
-1.2397946394312345
0.7912829984865355
-2.431936075477747
1.226902106930782
1.5391322906618603
-1.6797819859419745
-3.305255029794753
1.8578789466539427
0.045031607845786414
0.011211065796965958
0.4941738086301348
-0.4681775325378106
-1.971869612212017
1.1715907600346642
1.022516178061502
-0.4177189510549666
-0.22047485789705812
0.20393523630815347
0.19919028350374113
-0.029123553881300612
-9.475884339061846
4.723142686867099
-8.45220888624399
4.729343054008652
-7.4617363851680345
1.680140767782309
-3.5805238059872213
1.8516794482045258
2.713480000573199
-5.601517275234555
-0.17750056051085084
0.1680976537981338
-0.9760795278563559
0.6413210997830947
-0.9380014458959348
0.6332022088791616
-15.69440984840433
2.0293643768907
-0.45576512445852657
0.5231940530901829
3.0089834020563853
-5.281090171220267
2.8487626668522297
-3.0231267229371026
1.0168436738861526
-1.686798341086294
3.052978606204352
-3.5822470642031146
-0.9790874044935833
2.3597929800002087
1.566421583396437
-1.4620074061455988
3.0440055569379987
-6.412784860356058
-12.64180833210158
10.325785030085413
-1.7494731316322492
0.8913448257930985
-0.8035237527990762
0.5246298659550308
-10.629245694014482
4.079819220133338
2.289148134358987
-3.8804938978042456
-9.980659376133438
4.766131362398594
3.1440820249546664
-7.543911260910064
-16.24717691160797
4.1587752154741775
-6.810024789596759
2.6711244284995415
0.913624794981458
-0.6901973750102613
6.038275074934003
-4.199604319191976
2.700675711988361
-1.445880621437264
3.5861969332917276
-19.034722299172728
0.872186323783716
-0.8621743499595018
-8.53365981120205
3.9400330617857495
3.9032296984277877
-5.89161931627777
-11.643821745445578
6.240699100766097
4.994135585796208
-7.275070534548218
-19.14448680597673
4.813294111065858
-2.205622607356423
1.643722969393729
1.5648542796159983
-3.7552394069014396
0.8764849931419261
-1.1228727920593284
-9.816338888464534
3.5616235865063492
-0.5920607857717914
0.418347865946916
-2.7318440434900015
1.3901274639426808
-1.3895405845682256
1.1938899646238568
-11.343888443081767
2.305522440456833
-10.434544375086501
2.5076292848068227
-1.7996939100852938
1.580008824460208
3.6319167184119348
-2.1725421913201335
2.490286753479025
-1.0559840124871065
-11.310200759257985
6.518260236289014
-7.0465112175447615
3.5913371884687892
-0.8208103750499973
0.6414240577237307
-7.0724221055269885
2.433405173433229
-4.759883861729998
3.3475814383317957
0.18306191599804622
-0.18628794497712442
3.255153677286007
-2.260164759634053
-4.367730486531313
1.573428821183818
-0.8125741733112664
0.594006455282923
-4.340605925636698
1.6485210978956564
-7.334874797641146
2.540704379636693
-0.9639143661440388
0.6877925205530278
1.7069561185291193
-2.475745780824517
-10.393886511381416
7.967998382692282
-5.698666443156473
1.9431977104741722
-7.718787434265636
3.050071998083327
-8.877369173313985
6.8616771453210035
-9.205392453947313
5.237653055972639
-13.59507498148172
4.472180929132056
3.0644112730341124
-11.06662539822468
1.7369384766117386
-3.278594438259229
-0.9630963743281267
1.3847732774121726
5.054052546111525
-1.255568022604049
2.726184815520088
-4.876342111493215
4.532141049257719
-9.454584627286241
2.3059988884999285
-7.563725083021455
-3.1945984392572315
3.3373866363810794
-1.2797267236693337
0.8149290993145897
4.359349874229688
-5.74855048437249
0.87004818503881
-1.0503564046870077
2.3038654870466018
-4.438102038992615
4.180244542596157
-10.115146506988923
-11.790386576550418
8.213830986156692
5.832804619177589
-17.217434853999475
-4.887653685232323
3.4613286563394388
-1.7508173981563144
4.133389946195116
2.555843659595433
-2.552271584855841
0.981929668762682
-0.9532367083953404
-2.504674438470384
2.5879631359024398
2.7376344675650506
-4.033013571194689
4.594920366278782
-4.298205417988335
5.951561464375156
-15.12755535171018
1.0188381206001564
-1.3289491439389374
4.42512411846645
-10.633430683053358
-6.008915716789979
6.744096632877772
3.3178544910997188
-19.19813456626799
2.730143587000183
-6.23551635732225
-1.553846889283637
0.9238977995860933
0.8528946159205761
-0.7376716752319988
3.8252812124804247
-8.746654818534955
1.2306619818510132
-2.4840826517945804
1.2861098748319366
-0.9101294646614682
-5.058303919107793
2.756665860992824
9.115934274133533
19.135392895215713
15.421994026907823
10.57137918365074
10.92477767293413
11.479159736854744
27.841493367928194
21.022037903013576
13.824808110127746
21.79827472981765
18.654530549473158
14.830075634913795
