GIS
16
-7.864730694576664
35
Person
Position
Time-Within
Place
Entity
Attacker
Artifact
Destination
Giver
Time-Holds
Org
Time-Ending
Target
Instrument
Victim
Agent
Time-Starting
Recipient
Defendant
Crime
Plaintiff
Adjudicator
Sentence
Money
Seller
Origin
Buyer
Beneficiary
Price
Time-Before
Time-After
Time-At-Beginning
Time-At-End
Vehicle
Prosecutor
1133
69 0
8 0 1
1 0 1 2
5 0 1 2 3 4
3 0 1 2 3 4 5 6 7 8 9 10 11 12 13 14 15 16 17 18 19 20 21 22 23 24 25 26 27 28 29 30 31 32 33 34
1 0 1 2 3 4 5 6 7 8 9 10 11 12 13 14 15 16 17 18 19 20 21 22 23 24 25 26 27 28 29 30 31 33 34
2 0 1 2 3 4 5 6 7 8 9 10 11 12 13 14 15 16 17 18 19 20 21 22 23 24 25 26 27 28 29 30 32 33 34
1 0 1 2 3 4 5 6 7 8 9 10 11 12 13 14 15 16 17 18 19 20 21 22 23 24 25 26 27 28 29 30 33 34
1 0 1 2 3 4 5 6 7 8 9 10 11 12 13 14 15 16 17 18 19 20 21 22 23 24 25 26 27 28 31 33
1 0 1 2 3 4 5 6 7 8 9 10 11 12 13 14 15 16 17 18 19 20 21 22 23 24 25 26 27 29 30 31 32 33 34
1 0 1 2 3 4 5 6 7 8 9 10 11 12 13 14 15 16 17 18 19 20 21 22 24 25 26 27 30 31 32 33 34
1 0 1 2 3 4 5 6 7 8 9 10 11 12 13 14 15 17 18 19 20 21 22 23 25 26 27 33 34
1 0 1 2 3 4 5 6 7 8 9 10 11 12 13 14 16 17 18 19 21 23 25 27 29 30 31 32 33
1 0 1 2 3 4 5 6 7 8 9 10 12 13 14 15 16 17 18 19 20 21 22 23 24 25 26 27 29 31 32 33 34
1 0 1 2 3 4 5 6 7 8 9 10 12 13 14 15 16 17 18 19 20 21 24 26 27 29 33 34
1 0 1 2 3 4 5 6 7 8 9 10 12 13 14 15 17 18 19 20 21 22 23 24 25 26 33 34
1 0 1 2 3 4 5 6 7 8 9 10 12 13 14 15 18 19 20 21 23 24 25 26 27 28 32 33 34
1 0 1 2 3 4 5 6 7 8 9 12 13 14 15 16 17 18 19 21 27 28 30 32
1 0 1 2 3 4 5 6 7 8 10 12 13 14 15 16 17 18 20 21 24 26 27 33 34
1 0 1 2 3 4 5 6 7 8 10 12 13 14 15 17 18 19 20 22 23 25 26 27 30 33
1 0 1 2 3 4 5 6 7 8 10 12 13 14 15 17 18 20 21 24 26 27 33 34
1 0 1 2 3 4 5 6 7 8 10 12 13 14 15 17 24 25 26 29 33
1 0 1 2 3 4 5 6 7 8 12 13 14 15 19 21 24 25 26 27 33
1 0 1 2 3 4 5 6 7 8 12 13 14 16 17 19 21 24 25
1 0 1 2 3 4 5 6 7 9 10 11 12 13 14 15 17 18 19 20 21 23 24 26 27 31 32 33
1 0 1 2 3 4 5 6 7 12 13 15
1 0 1 2 3 4 5 6 8 10 12 13 14 15 17 18 19 20 23 25 26 27 33
1 0 1 2 3 4 5 6 8 13 14 17 18 19 20 22 26
1 0 1 2 3 4 5 6 9 10 12 13 14 15 18 19 21 24 26 32 34
1 0 1 2 3 4 5 7 8 9 13 14 15 17 18 25
1 0 1 2 3 4 5 7 8 9 13 14 15 17 19 22 25 26 27 30 31 32 34
1 0 1 2 3 4 5 7 9 13 14 15 19 34
1 0 1 2 3 4 5 12 13 16
1 0 1 2 3 4 6 7 9 12 14 15 22 27 29
1 0 1 2 3 4 6 7 10 15 16 17 25
1 0 1 2 3 4 6 24 26 28
1 0 1 2 3 4 7 12 17 22 25 26 33
1 0 1 2 3 4 9
1 0 1 2 3 4 9 11 15 16 29 30 31 32
2 0 1 2 3 4 15
3 0 1 2 3 4 16
1 0 1 2 3 4 16 30
1 0 1 2 3 4 16 31
1 0 1 2 3 4 29 32
1 0 1 2 3 4 30
1 0 1 2 3 4 31
1 0 1 2 3 6 14 15 25 33
1 0 1 2 3 14
2 0 1 2 4
1 0 1 2 4 5 6 8 10 14 17 20 26
1 0 1 2 4 5 6 9 10 12 13 14 15 17 18 20 22 30 33
1 0 1 2 4 6 7 15 25 29
1 0 1 2 4 6 8 14 17 18 21 22 23 24 26 27
1 0 1 2 4 6 10 15 25
1 0 1 2 4 30
1 0 1 2 10
1 0 1 2 14 32
1 0 1 2 23
3 0 1 3
3 0 1 3 4
1 0 1 3 4 5 6 7 8 10 13 14 15 18 21 24 26 27 33
1 0 1 3 4 5 6 7 10 11 12 14 15 17 18 19 21 22 25 26 27 29 33 34
1 0 1 3 4 5 6 8 10 12 13 14 16 19 21 23
1 0 1 3 4 5 6 14 19
1 0 1 3 4 5 8 13 21 24 25
1 0 1 3 4 6 7 10 15 19
1 0 1 3 4 6 10 13 14 18
1 0 1 3 4 9 16
1 0 1 3 4 15
1 0 1 3 4 16
12 0 1 4
1 0 1 4 5 6 14
1 0 1 4 10 30
1 0 1 4 12 14
1 0 1 4 14
1 0 1 4 15
1 0 1 4 16
2 0 1 4 30
1 0 1 6
1 0 1 6 12 14 17
1 0 1 6 18
1 0 1 7
1 0 1 12
1 0 1 12 14
2 0 1 15
1 0 1 18
1 0 1 34
7 0 2
5 0 2 3
2 0 2 3 4
1 0 2 3 4 5 6 7 8 9 10 11 12 13 14 15 18 19 20 21 22 23 24 34
1 0 2 3 4 5 6 7 8 9 10 12 13 14 15 16 17 18 19 20 21 23 24 25 26 32 33 34
1 0 2 3 4 5 6 7 8 9 11 12 13 14 15 17 18 19 20 21 22 23 25 26 30
1 0 2 3 4 5 6 7 8 10 12 13 14 15 16 18 19 21 30 33
1 0 2 3 4 5 6 7 8 10 12 13 14 15 17 18 20 24 26 27 33 34
1 0 2 3 4 5 6 7 8 12 13 14 15 16 17 18 20 21 22 23 24 25 26 29 33 34
1 0 2 3 4 5 6 7 9 10 11 12 14 16 17 18 19 21 25 29 30 33
1 0 2 3 4 5 6 7 9 10 13 14 15 25 32 33
1 0 2 3 4 5 6 7 10 11 12 13 15 17 18 19 21 25 26 33
1 0 2 3 4 5 6 8 9 10 12 13 14 15 17 21 25 26 28 30 33
1 0 2 3 4 5 6 8 10 14 15 18 21 25
1 0 2 3 4 5 6 8 12 14 15 16 17 18 33
1 0 2 3 4 5 6 10 12 13 14 15 17 18 23 26
1 0 2 3 4 5 6 10 12 14 15 18 20 21 24 29 30
1 0 2 3 4 5 6 12 13 14 15 17 18 25 33
1 0 2 3 4 5 6 12 13 20 22 33
1 0 2 3 4 5 7 8 12 13 15 18 19 21 22 25 26
1 0 2 3 4 5 15
1 0 2 3 4 6 7 9 10 14 15 16 29 30
1 0 2 3 4 6 7 9 14 19
1 0 2 3 4 6 7 9 15 18 25 32 33
1 0 2 3 4 6 7 9 18 19 21 28
1 0 2 3 4 6 7 15 16 25 30 33
1 0 2 3 4 6 7 15 25 30
1 0 2 3 4 6 8 9 10 12 14 16 30 31
1 0 2 3 4 7 9 11 12 14 16 18 21 24 25 28 33
1 0 2 3 4 7 9 11 15 16 18 19 20 21 22 23 25 29 30 31 32 34
1 0 2 3 4 8 15
1 0 2 3 4 8 19 23 27 30
1 0 2 3 4 9 15 16 18 19 20 21 34
1 0 2 3 4 12 25
1 0 2 3 4 15 18 19 20 21 22 23 34
1 0 2 3 4 19
1 0 2 3 4 21
1 0 2 3 5 6 7 9 14 15 18 19 32
1 0 2 3 5 6 24 26
1 0 2 3 5 12
1 0 2 3 5 12 13 14 15 16 29 31
1 0 2 3 6 7 8 10 11 14 15 17 18 19 21 22 23 25 26 33
1 0 2 3 6 15 24 26 27 29
1 0 2 3 9
1 0 2 3 9 11 13 14 15 16 29 30 31
1 0 2 3 9 13 14 15
1 0 2 3 9 15 16 18 19 20 21 22 34
1 0 2 3 9 16 18 19 20 21 22 23 31
1 0 2 3 10 11
1 0 2 3 11 14 15 16
1 0 2 3 11 15 19
1 0 2 3 11 29
3 0 2 3 13 14 15
1 0 2 3 13 14 15 18 22 30
1 0 2 3 13 14 15 29
1 0 2 3 13 29
2 0 2 3 14
1 0 2 3 14 19 31
1 0 2 3 14 31
1 0 2 3 15 18 19 20 21 22 23 34
1 0 2 3 15 19
1 0 2 3 16 18 19 21 22
1 0 2 3 18 19 21 22 29 34
1 0 2 3 19
1 0 2 3 29
1 0 2 4 5 6 8 9 10 14 15 18 21
1 0 2 4 5 6 10 12 13 14 23
1 0 2 4 5 6 12 13 14 15 18 25
1 0 2 4 5 6 12 13 14 18
1 0 2 4 5 6 12 14 15 18 21
2 0 2 4 6 7
1 0 2 4 6 7 16 25 29 30 32 33
1 0 2 4 6 7 18 25
1 0 2 4 6 7 25
1 0 2 4 6 15 20
1 0 2 4 9 14 18
1 0 2 4 10 15
1 0 2 4 15 18 20 21 34
1 0 2 4 16 18 19 21 29
1 0 2 5 6 10 18
1 0 2 5 6 12 14 15 17 18 19 25
1 0 2 5 6 13 14 21
1 0 2 5 6 26 34
1 0 2 6 15 25 33
1 0 2 7 15 25
1 0 2 8 12
1 0 2 8 17 23
1 0 2 9 15 19
1 0 2 9 18
1 0 2 12 14 18 19 25
1 0 2 13
1 0 2 13 14 15
1 0 2 14 15
1 0 2 15
1 0 2 18 19
1 0 2 18 19 20 22
1 0 2 19
1 0 2 20
1 0 2 23
3 0 3
4 0 3 4
1 0 3 4 5 6 7 8 10 12 14 15 17 18 20 21 24 26 33 34
1 0 3 4 5 6 7 8 13 14 15 17 18 33
1 0 3 4 5 6 7 12 13
1 0 3 4 5 6 8 10 12 13 14 15 18 21 24 25 26 33
1 0 3 4 5 6 8 10 12 15 17 21 34
1 0 3 4 5 6 8 12 14 15 17 18 20 25
1 0 3 4 5 6 10 12 13 14 15 17 18 19 21 23 25 26 33
1 0 3 4 5 6 10 12 13 19 21
1 0 3 4 5 6 10 13 21
1 0 3 4 5 6 10 14 15 20 33
1 0 3 4 5 6 12 13 15
1 0 3 4 5 6 12 14 15 18 20 24
1 0 3 4 5 6 12 14 18 26
1 0 3 4 5 6 13 14 15 18 25 33 34
1 0 3 4 5 12
1 0 3 4 5 14 27
1 0 3 4 5 15
1 0 3 4 6 7 8 9 10 12 13 14 19 22 23 25
1 0 3 4 6 10 12 15 17
1 0 3 4 7 12 14 17 18 19 21 22 25 26
1 0 3 4 8 21
1 0 3 4 12 13
1 0 3 4 15 18 19 20 21 22 23 34
1 0 3 4 15 18 19 20 22
1 0 3 4 15 18 20 21 34
1 0 3 4 17
1 0 3 5 6 8 18
1 0 3 5 6 14 15 17
1 0 3 5 6 20
1 0 3 5 12 18
1 0 3 6
3 0 3 6 7
1 0 3 6 7 8 9 17 18
1 0 3 6 7 19 22
1 0 3 6 8 14 15
1 0 3 6 13
1 0 3 6 14 21 25
1 0 3 6 14 30 33
1 0 3 7 15 18 19 21 22 25 34
1 0 3 9 18 19 22
1 0 3 11 14
3 0 3 13 14 15
1 0 3 13 14 16
2 0 3 14
2 0 3 14 15
1 0 3 19 22 23
12 0 4
1 0 4 5 6
1 0 4 5 6 7 8 13 14 15 17 21 22 24 26 29 33
1 0 4 5 6 8 10 12 13 14 15 18 19 21 24 26
1 0 4 5 6 8 10 12 14 15 17 18 20 21 24 26 27 34
1 0 4 5 6 8 10 12 14 15 17 18 20 21 26 27
1 0 4 5 6 8 10 12 14 15 17 18 20 27
1 0 4 5 6 8 12
1 0 4 5 6 8 12 13 14 15 17 18 20 21 24 26 33
1 0 4 5 6 8 12 14
1 0 4 5 6 8 12 14 15 17 18
1 0 4 5 6 8 12 14 15 18 26
1 0 4 5 6 8 12 15 18 24
1 0 4 5 6 8 13 15 16 20 21 22 24 25 26 34
1 0 4 5 6 8 14 15 18 20
1 0 4 5 6 8 15 18
1 0 4 5 6 10 12 13 14 17 18 21 26 27
1 0 4 5 6 10 12 14 15 17 18 20
1 0 4 5 6 12
1 0 4 5 6 12 13 14 15 17
1 0 4 5 6 12 14 15
1 0 4 5 6 12 14 15 17 18
1 0 4 5 6 12 14 15 17 18 25 27
1 0 4 5 6 12 14 15 18 20
1 0 4 5 6 12 14 15 18 20 26
1 0 4 5 6 13 15 18 20 21 33
1 0 4 5 6 13 15 29
1 0 4 5 6 13 24
1 0 4 5 6 14 17 20 24
2 0 4 5 6 15
1 0 4 5 6 20 24 26
1 0 4 5 8 12 14 15 17 26
1 0 4 5 12 14 15
1 0 4 5 12 14 17
1 0 4 5 12 34
1 0 4 5 26
1 0 4 6
1 0 4 6 7 9 11
1 0 4 6 7 10
1 0 4 6 8 12 14
1 0 4 6 8 12 15 18 20
2 0 4 6 12
2 0 4 6 12 14
1 0 4 6 12 14 17 18
1 0 4 6 12 14 19
1 0 4 6 12 14 27
2 0 4 6 14
1 0 4 6 14 18
1 0 4 6 15 18
1 0 4 6 15 21 24
1 0 4 6 17 18
2 0 4 6 18
1 0 4 6 18 20
1 0 4 6 25
1 0 4 7 10 15 17 18
1 0 4 9 16
1 0 4 10 12 14 19
1 0 4 12 14
1 0 4 12 14 15 17 18
1 0 4 12 15
1 0 4 12 18
1 0 4 12 19
1 0 4 12 30
2 0 4 14 15
1 0 4 14 15 18 21
1 0 4 14 33
3 0 4 15
1 0 4 15 17 18
1 0 4 15 18 20
1 0 4 15 18 20 21 34
1 0 4 15 18 21
1 0 4 15 29
1 0 4 17 23
2 0 4 18
1 0 4 18 20
1 0 4 18 20 21
2 0 4 18 20 34
1 0 4 19 25
1 0 4 21
1 0 5
1 0 5 6
1 0 5 6 8 12 13 14 15 18
1 0 5 6 9 12 13 14 20
1 0 5 6 12
1 0 5 6 12 14 15 18
1 0 5 6 12 14 15 18 20
1 0 5 6 12 14 15 18 21
1 0 5 6 12 14 17 18 24
1 0 5 6 14 15
1 0 5 6 14 15 18
1 0 5 6 15
1 0 5 6 26
1 0 5 7 8 9 10 12 13 14 21 23 26 29
1 0 5 8 13 14 15 26
1 0 5 8 15 17 20 24
1 0 5 10 14
1 0 5 12
1 0 5 12 15 18
1 0 5 13
1 0 5 13 14
1 0 5 15
1 0 5 15 18
2 0 5 18
1 0 6 7 10 12 25
1 0 6 7 26
1 0 6 8
1 0 6 8 10 12 13 14 18
1 0 6 8 12
1 0 6 8 17 27
1 0 6 9 10 12 13 14 19 25
1 0 6 12
2 0 6 12 14
1 0 6 13 14 15
2 0 6 14
1 0 6 14 15
1 0 6 14 18 20
2 0 6 15
1 0 6 15 18
1 0 6 15 26
1 0 7 15 25
1 0 7 18 28
1 0 9 13 14
1 0 10
2 0 12
1 0 12 14
1 0 12 14 15
1 0 12 15 18
1 0 13
5 0 13 14
1 0 13 14 15
1 0 13 14 15 16
16 0 14
14 0 14 15
1 0 14 15 19
1 0 14 17
1 0 14 18
1 0 14 29
6 0 15
1 0 15 16 19
1 0 15 18
2 0 17
9 0 18
1 0 18 19
1 0 18 19 20
2 0 18 19 21
3 0 18 20
1 0 18 20 21
1 0 18 20 22
3 0 18 21
1 0 19 21 23
1 0 19 22
1 0 25
11 1
1 1 2
1 1 2 3
1 1 2 3 4 5 6 8 12 14 15 17 18 19 23
1 1 2 3 4 5 7 9 13 15 19 21 22 23 24 25 28
1 1 2 3 4 6 8 12 13 18
1 1 2 3 5 12 14 15
4 1 3 4
1 1 3 23
5 1 4
1 1 4 7 10 12 14 15
1 1 4 12
1 1 6 9 12
1 1 6 12
1 1 14
1 1 18 22
1 1 26
58 2
16 2 3
15 2 3 4
1 2 3 4 5 6 7 8 10 13 16 17 19 26 34
1 2 3 4 5 6 9 11 12 14 15 18 20 33
1 2 3 4 5 6 10 12 13 19 33
1 2 3 4 5 9 11 12 13 14 15 16 29 30 31 32
1 2 3 4 5 9 11 12 13 14 16 29
2 2 3 4 5 9 12 13
1 2 3 4 5 9 12 13 15 16 29
2 2 3 4 5 9 12 13 29
1 2 3 4 5 9 12 13 29 30
2 2 3 4 5 9 13
1 2 3 4 5 11 12 13 14 16 31
1 2 3 4 5 12 13
1 2 3 4 5 12 13 17 23
1 2 3 4 5 31
2 2 3 4 6 7
1 2 3 4 6 7 9 14 18 19 23 24 25
1 2 3 4 6 7 14 16 23 25 33
1 2 3 4 6 7 29
1 2 3 4 6 8 9 14 17 21 23 26 27 30
1 2 3 4 7 12
5 2 3 4 9
3 2 3 4 9 11
1 2 3 4 9 11 16
1 2 3 4 9 11 16 29 30 31
1 2 3 4 9 30
1 2 3 4 11
1 2 3 4 13
1 2 3 4 13 18 19
2 2 3 4 16
1 2 3 4 16 29
1 2 3 4 16 30
1 2 3 4 16 30 31
1 2 3 4 19 21 23
1 2 3 4 31
2 2 3 5
1 2 3 5 6 7 10 11 12 13 15 16 25 30
1 2 3 5 6 7 10 11 12 17 23 25
1 2 3 5 6 8 12 13 14 15 16 17 18 19 21 25 26 27
1 2 3 5 6 12 13 15 25
1 2 3 5 9
2 2 3 5 9 12
4 2 3 5 9 12 13
1 2 3 5 9 12 13 16
1 2 3 5 9 12 13 29
1 2 3 5 9 12 14 15
1 2 3 5 9 13
1 2 3 5 9 32
1 2 3 5 10 12 13 14 15
1 2 3 5 10 12 13 15
1 2 3 5 11 12 13 16
1 2 3 5 11 12 13 18 19 21 34
10 2 3 5 12
7 2 3 5 12 13
1 2 3 5 12 13 14
1 2 3 5 12 13 14 15 16
1 2 3 5 12 13 15
2 2 3 5 12 13 16
2 2 3 5 12 13 29
1 2 3 5 12 14
1 2 3 5 12 14 15
3 2 3 5 12 16
4 2 3 5 13
1 2 3 5 13 14
1 2 3 5 14 15 16
1 2 3 5 15
1 2 3 5 18 20
1 2 3 6
1 2 3 6 7 9 11 14 15 16 25 29 30 31 32 33
1 2 3 6 7 10 12 18 19
1 2 3 6 7 10 25
1 2 3 6 7 11 12 19 25
1 2 3 6 7 11 16 19 23 29 33
1 2 3 6 7 18 19
1 2 3 6 7 25
1 2 3 6 7 26
1 2 3 6 8 9 11 16 17 23 24 26 27 28 29 30 31
1 2 3 6 8 9 11 17 23 27
1 2 3 6 8 16 17 23 24 26 27 28 31
1 2 3 6 8 17 24 26 27
1 2 3 6 15 25 26
1 2 3 6 17
1 2 3 6 24 26 27 28
1 2 3 6 24 26 28
1 2 3 7 8 25 33
1 2 3 7 10 12 33
1 2 3 7 11 16 18 19 21
1 2 3 7 11 25
1 2 3 7 29
1 2 3 8 11 12 14 16
1 2 3 8 13 15 19 25 29 32 33
1 2 3 8 16
1 2 3 8 17 23
5 2 3 9
1 2 3 9 12 16
1 2 3 9 13 14 15 29
1 2 3 9 16 18 19 21 34
1 2 3 9 19 20 21
1 2 3 9 33
2 2 3 10
1 2 3 10 11 15 16 29 30 31
1 2 3 10 15
1 2 3 10 15 29
1 2 3 10 31
2 2 3 11
1 2 3 11 16
6 2 3 12
1 2 3 12 13
1 2 3 12 13 14 15
1 2 3 12 14
1 2 3 12 14 33
5 2 3 13 14 15
1 2 3 13 14 15 30
1 2 3 13 14 31
2 2 3 13 15
1 2 3 13 29
6 2 3 14
4 2 3 14 15
1 2 3 15
1 2 3 15 18
1 2 3 16
1 2 3 16 18 19 21 34
1 2 3 16 29
2 2 3 18 19 21
1 2 3 18 19 21 22
1 2 3 18 19 21 34
1 2 3 19
1 2 3 20 21
1 2 3 23
1 2 3 24 28
11 2 4
1 2 4 5
1 2 4 5 6 15 26
1 2 4 5 12 13 14
1 2 4 5 12 13 15
1 2 4 6 7
1 2 4 6 7 8 15 17 23 25 30 31 33
1 2 4 6 7 9 15 16 25 29 33
1 2 4 6 7 9 15 25
1 2 4 6 7 14 25
1 2 4 6 14 18
1 2 4 6 15
1 2 4 7 14 25
1 2 4 8 13 14 17
3 2 4 9
1 2 4 9 16
1 2 4 12
1 2 4 15 16
2 2 4 16
2 2 4 21
1 2 5
1 2 5 6 9 12
3 2 5 9
2 2 5 9 12
1 2 5 9 12 13
1 2 5 11
6 2 5 12
1 2 5 12 13
1 2 5 12 14
2 2 5 13
3 2 6
2 2 6 7
1 2 6 7 9 11 15 16 25 33
1 2 6 7 9 14 15 16 25 32 33
1 2 6 7 9 15 25 30 33
1 2 6 7 9 25 33
1 2 6 7 9 30
1 2 6 7 10 18 22 23
1 2 6 7 11 15 25 29 32 33
1 2 6 7 11 16 25 32 33
1 2 6 7 15
1 2 6 7 15 16 25 33
1 2 6 7 15 16 33
1 2 6 7 15 25
2 2 6 7 15 25 33
1 2 6 7 15 33
1 2 6 7 16 25 33
4 2 6 7 25
1 2 6 7 25 29 30 33
1 2 6 7 25 29 32 33
2 2 6 7 25 33
1 2 6 7 32
6 2 6 7 33
1 2 6 8 17 23 24 26 27 28 29
1 2 6 8 17 24 26 27
1 2 6 8 17 27 28
1 2 6 10 12 27
1 2 6 14 18 19 25
1 2 6 14 21
2 2 6 15 25
4 2 6 15 25 33
1 2 6 17 23 24 26 27
2 2 6 23
2 2 6 24 26 28
1 2 6 31
1 2 6 32
1 2 7
1 2 7 11 25
1 2 7 11 25 33
1 2 7 15
1 2 7 15 33
3 2 7 25
2 2 7 25 33
1 2 7 33
1 2 8 16 17 23 27
1 2 8 17
1 2 8 17 23
1 2 8 17 23 27
6 2 9
4 2 9 11
1 2 9 11 16 29 30 31 32
2 2 9 16
1 2 9 16 18 19 21 32
1 2 9 18 19 20 21
1 2 9 18 19 21
1 2 9 23
1 2 9 29
1 2 9 29 30 31 32
2 2 9 30
1 2 9 32
2 2 10
3 2 10 15
5 2 11
1 2 11 14
4 2 11 16
1 2 11 16 29
1 2 11 16 29 30
3 2 12
1 2 12 14
1 2 13 14 15 29
3 2 14
1 2 14 15
1 2 14 16
1 2 14 32
1 2 15 18 22
1 2 15 25 32 33
1 2 15 30
14 2 16
2 2 16 29
1 2 17 23
1 2 17 23 27 29
5 2 18
4 2 18 19
1 2 18 19 20
1 2 18 19 34
2 2 18 20
2 2 18 22
3 2 19
1 2 22 30
1 2 23 24 28
4 2 29
1 2 29 31
2 2 32
57 3
15 3 4
2 3 4 5
1 3 4 5 6 7 10 12 13 14 17 18 20 21 24 25 27 33
1 3 4 5 6 12 14 15 18 19 20
1 3 4 5 6 15 19 27
1 3 4 5 7 8 15 17 18 20 21 24 25 26 27 34
1 3 4 5 7 8 15 25
1 3 4 5 7 12
1 3 4 5 7 12 18 20
1 3 4 5 7 15
1 3 4 5 7 15 17 24
1 3 4 5 7 15 24 25
1 3 4 5 7 18 25 27
1 3 4 5 7 25 26
1 3 4 5 8 10 15 17 20 34
1 3 4 5 8 13 14 24 25
1 3 4 5 12
2 3 4 5 12 13
1 3 4 5 12 13 16
1 3 4 5 12 13 30
1 3 4 5 15 17 26
1 3 4 5 25
1 3 4 5 26
1 3 4 6 7 11 13
1 3 4 6 7 19
1 3 4 6 15
3 3 4 7
1 3 4 7 8
1 3 4 7 8 17
1 3 4 7 12
1 3 4 7 12 25
1 3 4 7 15
1 3 4 7 15 17 25 27
5 3 4 7 25
1 3 4 7 26
2 3 4 9
1 3 4 9 15 18 19 21 34
1 3 4 11 15
1 3 4 15 17 21
1 3 4 16
1 3 4 16 29
1 3 4 19 21
1 3 4 25
22 3 5
1 3 5 6 7 9 12 13
1 3 5 6 7 12 15 25 32
1 3 5 6 25
1 3 5 7 12 18
1 3 5 7 15 17 20 21 25 26
1 3 5 7 15 24
2 3 5 7 25
1 3 5 7 25 34
1 3 5 9
1 3 5 9 11
1 3 5 9 12
1 3 5 9 16
1 3 5 11 12
15 3 5 12
16 3 5 12 13
1 3 5 12 13 14 30
1 3 5 12 13 31
1 3 5 12 14
2 3 5 12 14 15
1 3 5 12 16
1 3 5 12 18
1 3 5 12 29
1 3 5 12 30
1 3 5 13
1 3 5 13 15
1 3 5 14 15
1 3 5 15
1 3 5 15 25
1 3 5 17 24 26
1 3 5 18 21 30
1 3 5 26
2 3 6
2 3 6 7
1 3 6 7 10 14 15
1 3 6 7 12 17 25
2 3 6 7 12 25
1 3 6 7 14
1 3 6 7 25
1 3 6 8 17 23 24 26
1 3 6 8 17 23 24 26 27
1 3 6 8 17 23 26 27
2 3 6 8 17 24 26 27
1 3 6 12 13
1 3 6 12 15 26 27 30
1 3 6 13 33
1 3 6 24 25 32
1 3 6 26
29 3 7
1 3 7 11 25
5 3 7 12
1 3 7 12 17
6 3 7 12 25
1 3 7 14
1 3 7 14 25
1 3 7 15
1 3 7 18 19 21 22
17 3 7 25
1 3 8 9 17 26 28
1 3 8 15
1 3 8 17 18 22 23
1 3 8 17 24
2 3 8 17 27
1 3 8 24 26 27
1 3 9
1 3 9 12
1 3 9 12 13
1 3 9 12 16 30
1 3 9 16
1 3 9 18 19
3 3 10
1 3 10 12 25
3 3 10 15
20 3 12
3 3 12 13
1 3 12 16
1 3 12 19 20
2 3 13 14
1 3 13 14 15
2 3 13 15
1 3 13 16
1 3 13 25 33
1 3 14
3 3 14 15
1 3 15 18 20 21 34
1 3 15 18 21
1 3 15 26
1 3 16 24 25
1 3 17 26 27
3 3 18
1 3 18 19 20 21
1 3 18 19 20 21 22 34
1 3 18 19 21
1 3 18 19 21 34
1 3 18 19 22
1 3 18 19 34
1 3 18 21 25
2 3 18 21 32
3 3 19
1 3 19 21 22 23
7 3 21
1 3 22
1 3 23 27
9 3 25
95 4
5 4 5
1 4 5 6
1 4 5 6 7 12 24
1 4 5 6 7 14 18 33
1 4 5 6 8 10 12 15 17 18 20 21 24 26 27 34
1 4 5 6 8 12 14 15 18 21 26
1 4 5 6 8 15
1 4 5 6 9
1 4 5 6 12
1 4 5 6 12 14
1 4 5 6 12 14 15 26 27
1 4 5 6 12 15
1 4 5 6 12 15 30
1 4 5 6 14
1 4 5 6 15
1 4 5 6 33
1 4 5 7
1 4 5 7 10 13 15 16 25
1 4 5 7 12
2 4 5 8
1 4 5 8 10 14 15 24
1 4 5 8 14 17 27
1 4 5 8 15
1 4 5 10 12 15
1 4 5 10 14 15 20 24
1 4 5 10 15
1 4 5 10 26
2 4 5 12
1 4 5 12 14 18
1 4 5 12 15
1 4 5 12 17
1 4 5 12 17 18 20 27
1 4 5 13 16
3 4 5 14
1 4 5 14 15
1 4 5 15
1 4 5 15 19
1 4 5 15 21 22
1 4 5 16 18
1 4 5 17
1 4 5 17 24
4 4 6
1 4 6 8
1 4 6 8 18
1 4 6 10 13 15
1 4 6 10 17 18 24 26
3 4 6 12 14
1 4 6 12 14 21
2 4 6 12 15
1 4 6 12 27
1 4 6 14
1 4 6 14 15 17 26
2 4 6 14 15 18
1 4 6 14 17
2 4 6 15
1 4 6 15 17 20
1 4 6 15 18
1 4 6 17 25
1 4 6 18
1 4 6 18 21
1 4 6 23
1 4 6 25
1 4 7 10
1 4 7 12
2 4 8
1 4 8 10 12 17 18
1 4 8 15
1 4 8 18
1 4 8 23
1 4 8 26
1 4 10
1 4 10 12
1 4 10 18 26
1 4 10 20
1 4 11
1 4 12
2 4 12 14
1 4 12 14 15 19
1 4 12 14 25 33
1 4 12 15
1 4 12 15 17 20
1 4 12 17 18 25 27 33
1 4 13
1 4 14
1 4 14 15
1 4 14 18
1 4 14 18 26
1 4 14 19
2 4 15
1 4 15 17
1 4 15 18 20 21
1 4 15 20
1 4 15 20 21
1 4 15 21
1 4 15 26
2 4 16
1 4 17
1 4 17 21 34
1 4 17 23
1 4 18
2 4 18 20
1 4 18 34
1 4 20
1 4 21
1 4 23
1 4 24
1 4 25 33
1 4 30
25 5
1 5 6
1 5 6 7 12 16 25
1 5 6 10 12 15
2 5 6 12
2 5 6 12 14
1 5 6 12 14 15
2 5 6 12 14 15 26
1 5 6 12 14 24
1 5 6 12 15 26 27
1 5 6 12 25
1 5 6 12 26
1 5 6 13 14 33
1 5 6 14 15
4 5 6 15
1 5 6 17
1 5 7
1 5 7 22 23
1 5 8 12 14 18 24
1 5 8 13 17 26
1 5 8 15 20
2 5 9 12 13
1 5 10 12 15
48 5 12
7 5 12 13
3 5 12 14
4 5 12 14 15
1 5 12 14 20
1 5 12 14 24
2 5 12 15
1 5 12 18
12 5 13
1 5 13 14 15
1 5 13 18
2 5 14
2 5 14 15
2 5 15
2 5 15 18
1 5 15 26
1 5 15 26 27
1 5 15 34
1 5 17
30 6
11 6 7
1 6 7 8 15 17 25 33
1 6 7 9
1 6 7 9 11 15
1 6 7 9 15 30
1 6 7 9 16 33
1 6 7 9 25
1 6 7 9 29
1 6 7 10 16
1 6 7 11 15 25 33
1 6 7 12
1 6 7 12 20
1 6 7 13 15 16 33
1 6 7 14 18
1 6 7 15
1 6 7 15 18 21 25 30 33
3 6 7 15 25
4 6 7 15 25 33
6 6 7 15 33
6 6 7 25
1 6 7 25 31
3 6 7 25 33
4 6 7 33
1 6 8 15 26
1 6 8 17
1 6 8 17 23
2 6 8 17 23 26 27
1 6 8 17 24 26 27
1 6 8 17 24 26 29
1 6 8 17 26
1 6 8 23
1 6 8 23 24
1 6 9 23 24
2 6 10
1 6 10 15 23
1 6 10 18 20
1 6 12
1 6 12 13
1 6 12 13 15 27
5 6 12 13 33
2 6 12 14
1 6 12 14 15
1 6 12 15 25
2 6 12 33
5 6 13
1 6 13 14
1 6 13 14 16 33
1 6 14
1 6 14 15
1 6 14 18
26 6 15
1 6 15 17
1 6 15 18 21 25
5 6 15 25
2 6 15 25 33
1 6 15 29
3 6 15 33
1 6 17
1 6 17 23 26
1 6 17 27
2 6 18
1 6 19
3 6 23
3 6 24
3 6 24 26
2 6 25
1 6 25 33
2 6 26
2 6 26 27
2 6 26 28
1 6 26 31
1 6 28
12 6 33
37 7
1 7 8
1 7 9 25
1 7 11 29
2 7 12
2 7 15 25
1 7 16 25
1 7 17 25
2 7 21
1 7 22
1 7 22 23
1 7 22 25
46 7 25
7 8
1 8 9 17
1 8 9 17 23
5 8 17
1 8 17 23
1 8 17 23 24 26 29
1 8 17 23 27
1 8 17 24 26
2 8 17 24 26 27
2 8 17 26
2 8 17 26 27
4 8 17 27
4 8 24
4 8 24 26
1 8 24 26 27
1 9 12 13
1 9 15 16 30
13 10
1 10 14 15 23 28
6 10 15
1 10 17
1 10 31
26 12
11 12 13
1 12 13 14
3 12 13 33
8 12 14
1 12 14 17
1 12 14 18
1 12 14 30
1 12 14 33
1 12 18 25
1 12 33
48 13
4 13 14 15
1 13 14 18 26
1 13 18 20
2 13 20
3 13 33
48 14
30 14 15
1 14 15 17 23
1 14 17
1 14 19 22 23
16 15
3 15 18
1 15 18 20 21 22 34
1 15 18 21
1 15 20
1 15 20 21 22 34
1 15 29
1 16
7 17
1 17 18 20
1 17 18 23
3 17 23
1 17 23 26
5 17 26
4 17 27
30 18
2 18 19
1 18 19 20
1 18 19 21
1 18 19 21 31
1 18 19 34
4 18 20
1 18 20 21
6 18 21
2 18 22
1 18 34
36 19
2 19 20 34
2 19 21
2 19 22
2 20
1 20 26
1 20 34
3 21
11 22
4 23
1 23 28
1 24 26
8 25
2 25 33
1 26
2 26 27
1 27
4 33
3 34
2620
synPathTypes=Personnel_PERSON_OBJ
prevTokenAndType=Personnel_)
synPathTypes=Personnel_PERSON_ARG0
arg=Tvrdik
evTypeArg=Arrest-Jail:people
synPathTypes=Personnel_PERSON_ARG1
synPathEvType=Life_COMP:to:OBJ
synPathTypes=Life_PERSON_COMP:to:OBJ
synPathTypes=Personnel_PERSON_A-POS-1
evTypeArg=End-Position:she
evTypeArg=Arrest-Jail:he
synPath=OBJ-1:give:COMP:to:OBJ
synPathEvType=Life_OBJ-1:give:COMP:to:OBJ
synPathTypes=Life_PERSON_OBJ-1:give:COMP:to:OBJ
chunkPath=follow_president
chunkPathAndType=Personnel_follow_president
prevTokenAndType=Personnel_fired
evTypeArg=Arrest-Jail:him
evTypeArg=Be-Born:child
evTypeArg=End-Position:him
synPathTypes=Personnel_PERSON_T-POS
chunkPathAndType=Personnel_follow_of
synPathEvType=Personnel_COMP:of:OBJ
synPathTypes=Personnel_PERSON_COMP:of:OBJ
arg=CEO
evTypeArg=End-Position:CEO
prevToken=hire
prevTokenAndType=Personnel_hire
synPathTypes=Personnel_PERSON_SENT-1
evTypeArg=Start-Position:he
prevTokenAndType=Personnel_think
evTypeArg=Start-Position:people
prevToken=appoint
prevTokenAndType=Personnel_appoint
evTypeArg=Start-Position:they
evTypeArg=End-Position:he
evTypeArg=Elect:Bush
prevToken=Cabinet
prevTokenAndType=Personnel_Cabinet
evTypeArg=End-Position:members
evTypeArg=End-Position:Colin_Powell
evTypeArg=Start-Position:Who
chunkPath=precede_would_like_to_see
chunkPathAndType=Personnel_precede_would_like_to_see
synPath=COMP-1:see:COMP-1:like:SENT-1
synPathEvType=Personnel_COMP-1:see:COMP-1:like:SENT-1
synPathTypes=Personnel_PERSON_COMP-1:see:COMP-1:like:SENT-1
arg=figures
evTypeArg=Start-Position:figures
prevTokenAndType=Personnel_which
chunkPath=precede_would_you
chunkPathAndType=Personnel_precede_would_you
evTypeArg=Divorce:his
prevTokenAndType=Personnel_when
synPathTypes=Personnel_PERSON_COMP
chunkPathAndType=Personnel_precede_'m
evTypeArg=Start-Position:He
evTypeArg=Elect:he
chunkPathAndType=Personnel_precede_get
prevTokenAndType=Personnel_-
anchor=ceremony/n
synPathTypes=Justice_PERSON_ARG1
evTypeArg=Release-Parole:your
evTypeArg=End-Position:people
prevTokenAndType=Personnel_fire
evTypeArg=End-Position:her
evTypeArg=Start-Position:her
arg=Sistani
evTypeArg=Elect:Sistani
evTypeArg=End-Position:minister
chunkPathAndType=Personnel_follow_ORGANIZATION
evTypeArg=End-Position:president
prevTokenAndType=Personnel_put
arg=general
evTypeArg=End-Position:general
prevToken=named
prevTokenAndType=Personnel_named
anchor=re/n
anchor=step
prevTokenAndType=Personnel_.
anchor=former
synPathEvType=Personnel_T-POS
prevTokenAndType=Personnel_for
dist=2
noSynPath
dist=3
dist=0
dist=1
dist=4
chunkPath=precede_
chunkPath=follow_
dist=5
dist=6
prevToken=and
prevToken=in
prevToken=,
prevToken=.
prevToken=of
dist=8
prevToken=for
synPath=SBJ
synPath=OBJ
prevToken=that
anchor=take
prevToken=as
prevToken=from
dist=9
anchor=throw
chunkPath=precede_be
synPath=T-POS
prevToken=the
prevToken=is
noChunkPath
synPath=A-POS
anchor=fire
synPath=COMP
anchor=be
anchor=win
synPath=COMP:to:OBJ
prevTokenAndType=Personnel_the
evType=Personnel
chunkPathAndType=Personnel_precede_
anchor=name
chunkPathAndType=Personnel_follow_
anchor=elect
anchor=election/n
prevTokenAndType=Personnel_in
prevTokenAndType=Personnel_,
anchor=resign
anchor=retire
anchor=hire
anchor=remove
anchor=lose
chunkPathAndType=Personnel_precede_be
synPathEvType=Personnel_OBJ
chunkPath=precede_'s
prevToken=after
anchor=leave
anchor=give
anchor=out
anchor=appoint
anchor=begin
chunkPath=follow_GPE
chunkPath=follow_ORGANIZATION
synPathEvType=Personnel_ARG1
prevToken=become
prevTokenAndType=Personnel_is
prevTokenAndType=Personnel_of
prevTokenAndType=Personnel_to
synPathEvType=Personnel_A-POS-1
chunkPath=precede_have
prevToken=to
synPath=ARG1
prevToken=be
chunkPath=follow_from
anchor=put
synPath=A-POS-1
anchor=become
prevTokenAndType=Personnel_and
prevTokenAndType=Personnel_from
prevTokenAndType=Personnel_as
chunkPathAndType=Personnel_precede_have
prevTokenAndType=Personnel_that
synPathEvType=Personnel_COMP
anchor=quit
anchor=retired
anchor=removal/n
chunkPathAndType=Personnel_precede_'s
anchor=new
prevToken=appointed
prevTokenAndType=Personnel_appointed
prevTokenAndType=Personnel_be
arg=president
anchor=replace
arg=minister
arg=chief
synPathEvType=Personnel_SBJ
anchor=introduce
anchor=appointment/n
prevTokenAndType=Personnel_after
prevToken=put
prevToken=among
arg=premier
anchor=return/n
arg=President
arg=governor
anchor=nominate
anchor=did
arg=executive
arg=prosecutor
anchor=divorce
prevToken=On
prevToken=arrested
prevTokenAndType=Justice_arrested
anchor=resignation/n
prevToken=fire
anchor=wedding/n
anchor=divorce/n
anchor=birth/n
anchor=born
anchor=wed
synPathEvType=Justice_ADV
prevTokenAndType=Personnel_at
anchor=dismiss
synPath=N-POS
dist=7
dist=11
dist=12
synPath=ARG0
prevToken=by
prevToken=on
anchor=go
dist=10
chunkPath=precede_to
prevToken=but
chunkPath=precede_,
prevToken=:
prevToken=said
synPath=ADV-1
prevToken=or
dist=13
chunkPath=precede_for
synPath=ADV
dist=16
anchor=come
chunkPath=follow_for
anchor=head
anchor=drive
prevToken=since
prevToken=at
evType=Justice
prevToken=00
anchor=release
prevTokenAndType=Justice_.
dist=18
prevTokenAndType=Justice_,
anchor=release/n
prevToken=The
prevToken='s
anchor=seize
anchor=shot/n
anchor=kill
anchor=get
anchor=capture
anchor=marry
evType=Life
prevTokenAndType=Life_,
chunkPathAndType=Justice_precede_
chunkPathAndType=Justice_follow_
anchor=tie
anchor=execution/n
anchor=arrest
prevTokenAndType=Personnel_on
chunkPathAndType=Life_follow_
anchor=die
prevTokenAndType=Life_.
anchor=death/n
chunkPathAndType=Life_precede_
synPath=OBJ-1:|be
synPathEvType=Life_T-POS
synPathEvType=Life_ADV
anchor=execute
prevTokenAndType=Life_in
prevTokenAndType=Justice_of
anchor=jail
anchor=sentence/n
anchor=charge/n
anchor=arrest/n
anchor=marriage/n
prevToken=before
prevToken=out
chunkPath=follow_,
(contraction)|:SBJ
prevToken=think
anchor=join
anchor=head/n
anchor=return
anchor=walk
anchor=transfer
prevToken=so
prevToken=only
anchor=start
synPathEvType=Justice_SBJ
prevTokenAndType=Justice_on
prevToken=until
chunkPath=precede_have_be
synPath=N-POS-1
dist=19
anchor=lift
anchor=extradite
dist=21
anchor=sign
anchor=detain
prevToken=during
chunkPath=precede_,_be
chunkPath=precede_or
prevTokenAndType=Life_and
synPathEvType=Life_ARG0
anchor=capture/n
chunkPathAndType=Justice_precede_,_be
synPathEvType=Justice_T-POS
anchor=parole/n
chunkPathAndType=Justice_precede_'s
prevToken=release
synPathEvType=Personnel_ARG0
chunkPathAndType=Personnel_precede_,
anchor=married
prevTokenAndType=Personnel_said
synPathEvType=Personnel_N-POS
prevTokenAndType=Personnel_:
anchor=electoral
prevToken=)
synPath=SENT-1
prevToken=-
prevToken=when
arg=we
arg=people
prevToken=with
chunkPath=follow_with
prevToken=says
chunkPath=precede_have_to
prevToken=time
prevToken=where
arg=their
prevToken=because
anchor=overthrow
synPath=OBJ-1:have:SBJ
prevToken=know
chunkPath=follow_of
arg=us
chunkPath=follow_to
arg=board
prevToken=were
prevTokenAndType=Justice_and
synPathEvType=Justice_OBJ
prevTokenAndType=Justice_that
arg=jordan
prevToken=like
prevToken=how
prevToken=day
chunkPath=precede_face
prevToken=captured
prevToken=secure
synPath=ADV:for:OBJ
anchor=report
anchor=have
prevToken=got
chunkPath=precede_who
chunkPath=precede_that_be
synPath=ADV-1:|be
prevToken=took
prevTokenAndType=Justice_to
anchor=serve
prevTokenAndType=Life_to
prevTokenAndType=Life_of
prevTokenAndType=Life_when
synPathEvType=Life_N-POS
prevTokenAndType=Life_from
anchor=fall
synPathEvType=Life_ADV-1:|be
chunkPathAndType=Life_precede_be
synPathEvType=Life_COMP
chunkPathAndType=Justice_follow_of
anchor=previously
arg=Al-Douri
prevTokenAndType=Personnel_with
synPathEvType=Personnel_SENT-1
chunkPathAndType=Personnel_follow_by
synPathEvType=Personnel_ADV-1:be:SBJ
prevTokenAndType=Personnel_if
arg=Colin_Powell
arg=Rumsfeld
prevToken=elect
prevTokenAndType=Personnel_elect
prevTokenAndType=Personnel_says
arg=bush
prevToken=--
prevToken=if
menType=PERSON
arg=he
arg=him
arg=Saddam
arg=they
arg=Americans
arg=who
arg=you
arg=I
chunkPath=follow_by
arg=He
arg=your
arg=them
arg=his
prevToken=saying
arg=one
arg=Iraqis
arg=members
arg=her
arg=person
arg=she
chunkPath=precede_will
prevToken=have
chunkPath=precede_can
arg=i
arg=Bush
chunkPath=precede_go_to
chunkPath=precede_plan_to
arg=someone
arg=leaders
chunkPath=precede_get
synPath=COMP-1:have:SBJ
chunkPath=precede_might
arg=Putin
anchor=end
anchor=run
arg=leader
arg=officials
prevToken=once
arg=our
prevToken=''
arg=son
arg=wife
chunkPath=follow_and
arg=children
chunkPath=precede_be_to
arg=daughter
chunkPath=precede_be_be
arg=head
chunkPath=precede_want_to
chunkPath=precede_be_on
chunkPath=precede_go_to_be
chunkPath=precede_could_be
arg=Anwar
anchor=force
prevToken=?
prevTokenAndType=Personnel_since
synPath=ADV-1:be:SBJ
arg=employees
arg=She
arg=killer
arg=guy
anchor=hold
prevToken=has
arg=somebody
arg=parents
prevToken=And
chunkPath=precede_'
synPathTypes=Personnel_PERSON_SBJ
prevTokenAndType=Personnel_by
prevTokenAndType=Personnel_--
arg=You
synPathTypes=Justice_PERSON_OBJ
synPathTypes=Justice_PERSON_SBJ
prevTokenAndType=Justice_when
anchor=select
prevToken=pay
arg=sam_waksal
chunkPathAndType=Justice_precede_be_be
arg=Pasko
prevTokenAndType=Justice_said
synPathEvType=Justice_ARG0
synPathTypes=Justice_PERSON_ARG0
synPath=ADV:of:OBJ
arg=judge
arg=terrorist
arg=militants
prevToken=say
prevToken=which
arg=personnel
arg=man
arg=woman
prevToken=are
prevToken=whether
arg=father
arg=men
synPath=OBJ-1:plan:SBJ
prevToken=want
prevToken=about
prevToken=had
prevToken=If
chunkPath=precede_be_in
prevToken=engage
prevToken=allow
synPath=OBJ-1:be:SBJ
prevToken=why
arg=serious
arg=Tugle
arg=Toefting
arg=Ba'asyir
prevToken=see
synPath=COMP-1
arg=Giuliani
synPath=COMP-1:be:SBJ
arg=girls
arg=member
synPath=COMP:of:OBJ
chunkPath=precede_be_to_be
arg=boy
arg=baby
chunkPath=precede_could
arg=officers
arg=my
arg=pilots
arg=brother
synPath=SBJ:nil:N-POS
chunkPath=precede_'m
arg=luster
chunkPath=precede_would
anchor=extradition/n
prevToken=bring
prevTokenAndType=Life_for
synPath=OBJ-1:for:COMP-1:file:SBJ
arg=minor
arg=sympathizers
arg=Shah
arg=Saddam_Hussein
arg=nichols
prevToken=fired
chunkPathAndType=Life_follow_of
synPathEvType=Life_A-POS-1
prevTokenAndType=Life_with
prevTokenAndType=Life_out
prevTokenAndType=Life_--
synPathEvType=Life_OBJ
synPathEvType=Life_SBJ
chunkPathAndType=Life_follow_to
synPathTypes=Life_PERSON_T-POS
synPathTypes=Life_PERSON_A-POS-1
chunkPathAndType=Life_precede_have_be
arg=child
chunkPathAndType=Life_precede_'s
synPathEvType=Life_A-POS
synPathTypes=Life_PERSON_A-POS
synPathTypes=Life_PERSON_ADV-1:|be
synPathEvType=Life_ADV-1:be:SBJ
synPathTypes=Life_PERSON_ADV-1:be:SBJ
chunkPathAndType=Life_precede_'
arg=Who
arg=husband
synPathEvType=Life_OBJ-1:have:SBJ
synPathTypes=Life_PERSON_OBJ-1:have:SBJ
synPathTypes=Life_PERSON_OBJ
synPathTypes=Life_PERSON_SBJ
synPathTypes=Life_PERSON_ARG0
prevTokenAndType=Life_)
prevTokenAndType=Life_after
chunkPathAndType=Life_follow_,
synPathTypes=Life_PERSON_COMP
chunkPathAndType=Life_precede_have
prevTokenAndType=Life_that
prevTokenAndType=Life_if
prevTokenAndType=Life_think
prevTokenAndType=Life_but
prevTokenAndType=Life_because
prevTokenAndType=Life_before
anchor=do
arg=infant
arg=three
prevTokenAndType=Life_about
evTypeArg=Arrest-Jail:you
arg=cleric
arg=suspect
chunkPath=precede_should_be
evTypeArg=Arrest-Jail:they
prevToken=me
anchor=custody/n
arg=peterson
arg=candidates
arg=Marinello
synPath=OBJ-1:serve:SBJ
synPathEvType=Justice_OBJ-1:serve:SBJ
synPathTypes=Justice_PERSON_OBJ-1:serve:SBJ
arg=martha_stewart
prevTokenAndType=Justice_say
synPathEvType=Justice_SENT-1
synPathTypes=Justice_PERSON_SENT-1
arg=murderer
prevToken=sued
chunkPathAndType=Justice_precede_have_be
chunkPathAndType=Justice_precede_be
prevTokenAndType=Justice_with
prevTokenAndType=Justice_if
synPathTypes=Justice_PERSON_T-POS
arg=Chiluba
prevTokenAndType=Justice_where
chunkPathAndType=Justice_precede_will
prevTokenAndType=Justice_after
prevTokenAndType=Justice_before
prevTokenAndType=Justice_but
prevTokenAndType=Justice_think
synPathEvType=Justice_ARG1
prevTokenAndType=Justice_got
anchor=departure/n
menType=Job-Title
synPathTypes=Personnel_Job-Title_OBJ
synPathTypes=Personnel_Job-Title_A-POS-1
arg=ceo
evTypeArg=Elect:president
synPath=TMP-1
synPathEvType=Personnel_TMP-1
synPathTypes=Personnel_Job-Title_TMP-1
prevToken=new
prevTokenAndType=Personnel_new
synPathTypes=Personnel_Job-Title_ARG1
synPathEvType=Personnel_A-POS
prevTokenAndType=Personnel_a
prevToken="
prevToken=a
prevToken=was
anchor=eliminate
prevToken=former
prevTokenAndType=Personnel_former
prevToken=retired
prevTokenAndType=Personnel_retired
chunkPath=follow_a
chunkPathAndType=Personnel_follow_as
chunkPathAndType=Personnel_follow_from
synPathEvType=Personnel_COMP:to:OBJ
prevToken=elected
prevTokenAndType=Personnel_elected
prevToken=up
chunkPath=follow_as
chunkPath=follow_the
synPath=APPOSITIVE
prevToken=lost
prevToken=serving
prevToken=became
arg=September
synPathTypes=Justice_Time_ADV:in:OBJ
synPath=SENT-1:with:ADV-1:push:SENT-1:as:ADV-1:suffer:ADV
synPathEvType=Life_SENT-1:with:ADV-1:push:SENT-1:as:ADV-1:suffer:ADV
synPathTypes=Life_Time_SENT-1:with:ADV-1:push:SENT-1:as:ADV-1:suffer:ADV
arg=early_Friday
evTypeArg=Attack:Monday
synPathTypes=Conflict_Time_T-POS
evTypeArg=Transport:Wednesday
evTypeArg=Attack:Sunday
evTypeArg=Injure:Tuesday
synPath=ADV:in:OBJ:|2002|:N-POS
arg=last_week
synPathEvType=Contact_ADV:on:OBJ
synPathTypes=Contact_Time_ADV:on:OBJ
evTypeArg=Die:Monday
synPathTypes=Life_Time_ADV
arg=Sunday_morning
arg=April_30
synPathTypes=Justice_Time_ADV
arg=1995
arg=1991
arg=yesterday
synPathTypes=Movement_Time_COMP:on:OBJ
arg=1985
synPath=ADV:year:A-POS
evTypeArg=Meet:today
arg=february
evTypeArg=Attack:tonight
synPathTypes=Contact_Time_APPOSITE
arg=january
prevToken=another
evTypeArg=Die:today
evTypeArg=Transport:now
prevTokenAndType=Conflict_during
arg=1992
arg=2001
evTypeArg=Attack:1994
synPath=OBJ:morning:T-POS
arg=recently
synPathTypes=Contact_Time_T-POS
evTypeArg=Die:last_week
prevToken=hospital
prevTokenAndType=Life_hospital
chunkPath=follow_in_hospital
chunkPathAndType=Life_follow_in_hospital
synPathEvType=Life_ADV:week:A-POS
synPathTypes=Life_Time_ADV:week:A-POS
arg=recent
evTypeArg=Elect:recent
chunkPathAndType=Personnel_precede_GPE
synPathTypes=Personnel_Time_A-POS
evTypeArg=Elect:January
arg=this_weekend
arg=2004
synPath=ADV:on:OBJ:|2003|:N-POS
evTypeArg=Attack:1991
synPathTypes=Personnel_Time_T-POS
synPathEvType=Justice_ADV:in:OBJ
synPathEvType=Conflict_ADV:in:OBJ
prevTokenAndType=Contact_at
chunkPathAndType=Life_follow_in
prevTokenAndType=Life_In
chunkPathAndType=Contact_follow_on
chunkPath=follow_PERSON_in
synPathEvType=Life_COMP:in:OBJ
(contraction)|:ADV
chunkPathAndType=Business_follow_in
synPathEvType=Business_ADV:in:OBJ
prevToken=died
prevTokenAndType=Life_died
prevTokenAndType=Justice_In
prevTokenAndType=Personnel_The
synPathEvType=Justice_COMP:in:OBJ
prevToken=meeting
prevTokenAndType=Contact_meeting
anchor=demonstrate
prevTokenAndType=Contact_from
anchor=conference/n
anchor=letter/n
anchor=demonstration/n
anchor=protest/n
anchor=speak
anchor=talk
synPathEvType=Contact_COMP:to:OBJ
anchor=rally/n
chunkPathAndType=Contact_precede_for
prevToken=call
prevTokenAndType=Contact_call
dist=17
dist=14
synPath=COMP:with:OBJ
evType=Conflict
anchor=war/n
synPathEvType=Conflict_N-POS
prevTokenAndType=Conflict_of
prevTokenAndType=Conflict_.
chunkPathAndType=Conflict_precede_
prevTokenAndType=Conflict_,
anchor=fight
synPathEvType=Conflict_A-POS
prevTokenAndType=Conflict_a
chunkPathAndType=Conflict_follow_
prevTokenAndType=Conflict_and
chunkPath=precede_in
anchor=one
anchor=march
anchor=march/n
prevToken=over
synPath=ADV:in:OBJ
anchor=visit
anchor=pay
chunkPath=follow_at
prevTokenAndType=Contact_.
prevTokenAndType=Contact_the
prevTokenAndType=Contact_on
synPathEvType=Contact_ADV
anchor=call
anchor=summit/n
chunkPathAndType=Contact_precede_
synPathEvType=Contact_N-POS
anchor=meeting/n
evType=Contact
anchor=talk/n
anchor=discussion/n
chunkPath=precede_at
dist=20
chunkPathAndType=Contact_follow_
synPathEvType=Personnel_ADV:in:OBJ
prevTokenAndType=Contact_in
anchor=call/n
anchor=meet
anchor=fine/n
prevTokenAndType=Contact_,
anchor=War
anchor=terrorism/n
anchor=launch
prevToken=into
dist=15
anchor=drop
anchor=uprising/n
prevTokenAndType=Conflict_for
anchor=bombings/n
prevTokenAndType=Conflict_the
anchor=bomb
anchor=fire/n
anchor=explosion/n
anchor=fighting/n
anchor=bombardment/n
anchor=slaughter
prevTokenAndType=Conflict_is
prevTokenAndType=Conflict_'s
anchor=destroy
anchor=open
prevTokenAndType=Conflict_in
anchor=charge
anchor=attack
anchor=wipe
anchor=front/n
anchor=assault
anchor=storm
anchor=battle
anchor=clash/n
anchor=airstrikes/n
anchor=raid
anchor=combat/n
chunkPathAndType=Conflict_precede_be
anchor=raid/n
prevTokenAndType=Conflict_from
anchor=detonate
anchor=hit/n
prevTokenAndType=Conflict_or
chunkPathAndType=Conflict_precede_in
anchor=hit
anchor=shoot
anchor=assault/n
anchor=strike
anchor=battle/n
anchor=attack/n
anchor=strike/n
prevToken=killed
anchor=blow
anchor=invasion/n
prevTokenAndType=Conflict_on
chunkPathAndType=Conflict_precede_,
synPathEvType=Conflict_T-POS
anchor=terror/n
anchor=drop/n
anchor=fight/n
anchor=genocide/n
anchor=killing/n
anchor=it
anchor=action/n
prevToken=home
evType=Movement
chunkPath=follow_on
synPath=COMP:into:OBJ
synPath=ADV:on:OBJ
chunkPath=follow_in
chunkPath=follow_over
chunkPath=follow_into
anchor=deliver
evType=Transaction
prevTokenAndType=Transaction_in
chunkPathAndType=Transaction_follow_
anchor=provide
anchor=pick
prevTokenAndType=Transaction_on
anchor=buy
anchor=sell
synPath=COMP:|out
synPath=COMP:on:OBJ
prevTokenAndType=Justice_in
synPath=COMP:in:OBJ
prevToken=within
synPath=ADV:at:OBJ
chunkPath=precede_and
prevToken=At
anchor=contribution/n
prevTokenAndType=Conflict_In
synPathEvType=Conflict_ADV
prevTokenAndType=Conflict_over
anchor=nine
eleven
prevTokenAndType=Conflict_at
anchor=dead
anchor=trial/n
anchor=appeal/n
prevToken=In
chunkPathAndType=Business_follow_
prevTokenAndType=Business_in
evType=Business
anchor=found
anchor=set
anchor=bankruptcy/n
synPath=SBJ-1:end:ADV
synPathEvType=Contact_SBJ-1:end:ADV
chunkPathAndType=Conflict_follow_in
chunkPathAndType=Conflict_follow_on
synPathEvType=Conflict_COMP:on:OBJ
synPathEvType=Conflict_ADV:on:OBJ
anchor=blast/n
prevTokenAndType=Conflict_hit
prevToken=attacked
anchor=airstrike/n
anchor=stab
anchor=slaughter/n
prevToken=hit
anchor=injure
anchor=wound
prevTokenAndType=Life_the
anchor=injury/n
anchor=casualty/n
chunkPathAndType=Life_precede_to
anchor=suicide/n
synPath=CONJ-1:|according
synPathEvType=Life_CONJ-1:|according
synPathEvType=Conflict_OBJ-1:|be
prevTokenAndType=Life_killed
prevTokenAndType=Life_on
synPathEvType=Life_ADV:in:OBJ
prevTokenAndType=Life_at
chunkPath=precede_,_people
synPathEvType=Life_ADV:at:OBJ
chunkPathAndType=Life_precede_,
anchor=assassination/n
anchor=murder/n
prevTokenAndType=Life_'s
chunkPathAndType=Life_follow_in_the
chunkPath=follow_in_the
chunkPathAndType=Personnel_follow_in
anchor=hearing/n
chunkPathAndType=Contact_follow_in
anchor=conviction/n
anchor=convict
anchor=sentence
anchor=indictment/n
chunkPathAndType=Justice_follow_in
anchor=appeal
chunkPathAndType=Transaction_follow_in
prevTokenAndType=Transaction_at
synPathEvType=Contact_COMP:with:OBJ
anchor=discuss
anchor=interview/n
synPathEvType=Contact_T-POS
anchor=e-mail
prevTokenAndType=Contact_as
prevTokenAndType=Contact_meet
anchor=protest
synPathEvType=Contact_APPOSITE
anchor=tell
prevTokenAndType=Contact_after
chunkPath=precede_engage_in
prevToken=then
prevTokenAndType=Conflict_that
synPathEvType=Conflict_SBJ
anchor=attend
anchor=send
anchor=trip/n
anchor=visit/n
anchor=that
synPath=APPOSITE
prevToken=meet
prevToken=left
synPath=ARG2
synPathEvType=Contact_A-POS
prevTokenAndType=Contact_a
anchor=phone/n
prevTokenAndType=Contact_for
chunkPath=precede_by
synPathEvType=Personnel_ADV
prevToken=met
prevTokenAndType=Contact_met
anchor=hear
chunkPathAndType=Justice_precede_to
prevTokenAndType=Conflict_Iraq
chunkPath=precede_of
prevTokenAndType=Conflict_before
chunkPath=precede_engage_in_major
chunkPathAndType=Conflict_precede_engage_in_major
anchor=shootings/n
chunkPathAndType=Conflict_precede_of
prevTokenAndType=Conflict_after
prevToken=Iraq
prevTokenAndType=Conflict_said
prevTokenAndType=Conflict_killed
chunkPathAndType=Conflict_precede_have_be
anchor=abuse/n
prevToken=attack
prevTokenAndType=Conflict_"
prevTokenAndType=Conflict_:
anchor=assassinate
anchor=incursion/n
anchor=lob
synPathEvType=Movement_T-POS
synPath=ADV:week:A-POS
prevTokenAndType=Movement_until
anchor=travel
anchor=advance/n
anchor=fly
prevTokenAndType=Movement_,
chunkPathAndType=Movement_precede_
anchor=journey/n
synPathEvType=Movement_ADV
prevToken=get
anchor=arrive
prevTokenAndType=Movement_in
anchor=move/n
chunkPathAndType=Movement_follow_
prevTokenAndType=Movement_.
anchor=smuggle
anchor=move
prevTokenAndType=Movement_by
prevTokenAndType=Movement_that
anchor=rumble
anchor=advance
prevTokenAndType=Movement_over
anchor=push/n
anchor=travel/n
prevTokenAndType=Movement_on
anchor=cross
anchor=flee
synPathEvType=Movement_ADV:in:OBJ
anchor=enter
chunkPathAndType=Movement_follow_in
anchor=jump
anchor=arrival/n
anchor=traveling/n
anchor=flight/n
anchor=sail
chunkPathAndType=Transaction_precede_
prevTokenAndType=Transaction_.
prevTokenAndType=Transaction_for
prevToken=gave
synPath=COMP-1:|be
prevToken=MALE
anchor=withdrawal/n
prevTokenAndType=Movement_but
chunkPathAndType=Movement_precede_be
anchor=carry
chunkPathAndType=Movement_precede_to
synPathEvType=Movement_ADV-1
anchor=acquire
synPathEvType=Transaction_ADV:in:OBJ
prevTokenAndType=Transaction_get
anchor=sale/n
anchor=export
prevTokenAndType=Movement_since
prevTokenAndType=Movement_the
chunkPathAndType=Movement_follow_on
synPathEvType=Movement_COMP:in:OBJ
prevTokenAndType=Movement_at
synPathEvType=Movement_A-POS
anchor=mission/n
synPathEvType=Movement_ADV:on:OBJ
prevTokenAndType=Movement_is
prevTokenAndType=Movement_left
synPathEvType=Movement_COMP:to:OBJ
synPathEvType=Movement_COMP:|out
synPathEvType=Movement_COMP:on:OBJ
anchor=loan/n
anchor=compensate
anchor=gift/n
anchor=donation/n
evTypeArg=Meet:Wednesday
synPathTypes=Contact_Time_ADV
synPathTypes=Conflict_Time_ADV
synPathTypes=Conflict_Time_A-POS
evTypeArg=Attack:nine_eleven
arg=currently
prevToken=end
synPathTypes=Contact_Time_N-POS
arg=two-day
evTypeArg=Meet:two-day
menType=Time
arg=Wednesday
synPath=ADV:in:OBJ:day:T-POS
prevTokenAndType=Justice_for
anchor=sue
chunkPathAndType=Justice_follow_for
chunkPath=precede_GPE
arg=now
menType=Age
synPathTypes=Movement_Time_ADV
arg=nine_eleven
arg=a_month
prevTokenAndType=Business_on
chunkPath=precede_file_for
chunkPathAndType=Business_precede_
prevTokenAndType=Business_that
anchor=form
evTypeArg=Meet:Friday
arg=January
arg=tonight
evTypeArg=Attack:today
synPathTypes=Movement_Time_COMP:in:OBJ
synPath=SBJ-1
arg=Thursday
arg=tomorrow
arg=this_morning
arg=1994
arg=today
arg=Friday
anchor=crossfire/n
prevToken=bombing
prevTokenAndType=Conflict_bombing
prevToken=injured
prevToken=been
anchor=injured
prevTokenAndType=Life_injured
anchor=loss/n
prevTokenAndType=Life_:
prevTokenAndType=Life_since
synPath=ADV:day:T-POS
prevToken=sentenced
chunkPathAndType=Movement_precede_and
prevToken=just
arg=1998
arg=Tuesday
synPathTypes=Personnel_Time_ADV
arg=last_year
synPathTypes=Personnel_Time_ADV:in:OBJ
arg=1999
evTypeArg=Meet:Tuesday
prevToken=began
arg=next_week
evTypeArg=Attack:Tuesday
prevToken=erupted
evTypeArg=Attack:March_20
evTypeArg=Transport:today
evTypeArg=Meet:tomorrow
arg=Monday
arg=March_20
anchor=steal
anchor=skim
prevToken=convicted
prevTokenAndType=Justice_convicted
prevToken=here
prevTokenAndType=Justice_:
prevTokenAndType=Justice_until
anchor=acquit
anchor=indict
anchor=pled
synPathEvType=Justice_COMP-1:|be
anchor=suit/n
anchor=prosecution/n
prevToken=sentence
prevTokenAndType=Justice_sentence
prevTokenAndType=Justice_sentenced
synPath=OBJ:year:T-POS
prevToken=his
prevTokenAndType=Justice_his
chunkPath=precede_,_PERSON
prevToken=her
prevTokenAndType=Transaction_a
arg=Saturday
arg=Sunday
evTypeArg=Transport:Sunday
evTypeArg=Transport:Monday
chunkPath=follow_in_GPE
chunkPath=follow_to_GPE
chunkPathAndType=Movement_follow_to_GPE
synPathTypes=Conflict_GPE_ADV:in:OBJ
synPathEvType=Contact_ADV:in:OBJ
arg=Belgrade
evTypeArg=Attack:Baghdad
evTypeArg=Attack:Kut
evTypeArg=Attack:capital
of|:COMP-1:run:SBJ:hospital:T-POS
arg=neighborhood
synPathTypes=Contact_GPE_ADV:in:OBJ
evTypeArg=Attack:city
evTypeArg=Meet:Beijing
evTypeArg=Attack:village
evTypeArg=Injure:Baghdad
evTypeArg=Die:Iraq
arg=Bali
synPathTypes=Justice_GPE_ADV:in:OBJ
evTypeArg=Attack:iraq
arg=new_york
synPathTypes=Life_GPE_COMP:in:OBJ
evTypeArg=Attack:area
prevTokenAndType=Life_outside
synPathTypes=Conflict_FACILITY_ADV:in:OBJ
arg=gaza
evTypeArg=Attack:gaza
evTypeArg=Die:there
arg=africa
(contraction)|:SBJ:that:SBJ-1:grippedd:OBJ
arg=Vietnam
evTypeArg=Attack:here
prevTokenAndType=Conflict_across
synPathTypes=Conflict_GPE_COMP:at:OBJ
evTypeArg=Attack:Karbala
chunkPath=follow_near
chunkPathAndType=Conflict_follow_near
prevTokenAndType=Conflict_around
evTypeArg=Attack:hills
synPathEvType=Conflict_COMP:in:OBJ
evTypeArg=Attack:there
synPathTypes=Conflict_GPE_ADV
evTypeArg=Attack:bridge
evTypeArg=Die:checkpoint
evTypeArg=Attack:Vietnam
synPathTypes=Conflict_GPE_COMP:in:OBJ
synPathTypes=Conflict_LOCATION_ADV:in:OBJ
evTypeArg=Injure:mall
evTypeArg=Attack:place
arg=Rwanda
evTypeArg=Attack:Rwanda
synPathTypes=Personnel_GPE_ADV:in:OBJ
evTypeArg=Die:hospital
synPathTypes=Life_FACILITY_ADV:in:OBJ
synPathTypes=Life_GPE_ADV:in:OBJ
evTypeArg=Elect:US
prevToken=recent
prevTokenAndType=Personnel_recent
evTypeArg=Attack:Fallujah
arg=Florida
evTypeArg=Meet:Pyongyang
prevTokenAndType=Contact_to
evTypeArg=Meet:Washington
evTypeArg=Meet:Seoul
evTypeArg=Elect:government
anchor=reunite
anchor=correspondence/n
chunkPathAndType=Contact_follow_from
chunkPath=precede_hold
anchor=telephone/n
evTypeArg=Meet:Iraq
arg=United_Nations
synPath=OBJ-1:hold:SBJ
synPathTypes=Personnel_GPE_N-POS
evTypeArg=Elect:Iraq
arg=China
arg=israeli
arg=it
prevToken=including
prevToken=an
menType=GPE
arg=U.S
synPath=COMP:at:OBJ
prevToken=against
arg=Israel
arg=Washington
arg=United_States
arg=Iraq
arg=country
arg=government
synPath=COMP:from:OBJ
chunkPath=precede_take
synPathEvType=Conflict_ARG0
prevTokenAndType=Conflict_with
prevTokenAndType=Conflict_by
anchor=use
arg=nation
prevToken=persuade
arg=Japan
anchor=reach
synPath=COMP:for:OBJ
chunkPath=precede_did
arg=Seoul
arg=where
arg=there
arg=France
arg=Russia
arg=facility
arg=office
prevToken=headed
arg=Turkey
arg=Beijing
arg=city
arg=Jordan
arg=iraq
arg=here
arg=Pyongyang
prevTokenAndType=Contact_and
chunkPath=follow_be
prevTokenAndType=Justice_the
prevToken=A
arg=court
anchor=negotiation/n
chunkPath=precede_with
prevTokenAndType=Justice_from
prevToken=leave
evTypeArg=Attack:Iraq
synPathTypes=Conflict_GPE_A-POS
synPathTypes=Conflict_GPE_OBJ
evTypeArg=Attack:United_States
synPathTypes=Conflict_GPE_N-POS
synPathTypes=Conflict_GPE_ARG0
evTypeArg=Attack:country
evTypeArg=Attack:Israel
arg=america
arg=united_states
anchor=resistance/n
synPathEvType=Conflict_COMP:from:OBJ
chunkPathAndType=Conflict_follow_from
anchor=warfare/n
synPathTypes=Conflict_GPE_COMP:against:OBJ
evTypeArg=Attack:Israeli
evTypeArg=Attack:Iran
synPathTypes=Conflict_GPE_COMP:with:OBJ
evTypeArg=Attack:nation
arg=iran
synPathTypes=Conflict_GPE_T-POS
evTypeArg=Attack:China
anchor=punch
anchor=invade
arg=side
chunkPath=follow_against
arg=state
arg=US
arg=region
arg=White_House
arg=u.s
anchor=bloodshed/n
anchor=riot
anchor=smash
anchor=conflict/n
prevTokenAndType=Conflict_into
prevTokenAndType=Conflict_against
chunkPathAndType=Conflict_follow_against
synPathEvType=Conflict_COMP:against:OBJ
evTypeArg=Attack:people
synPathEvType=Conflict_COMP:at:OBJ
anchor=targeted
evTypeArg=Attack:we
chunkPathAndType=Conflict_precede_take
chunkPath=precede_kill_in
anchor=firefight/n
anchor=engage
evTypeArg=Attack:their
anchor=conquer
anchor=massacre/n
anchor=air/n
synPathEvType=Conflict_COMP:with:OBJ
evTypeArg=Attack:it
prevTokenAndType=Conflict_when
anchor=explode
synPathEvType=Conflict_ARG1
prevTokenAndType=Conflict_-
anchor=violence/n
prevTokenAndType=Conflict_as
anchor=striking
synPathEvType=Conflict_ADV-1
chunkPathAndType=Conflict_follow_with
chunkPathAndType=Conflict_precede_to
anchor=defeat
anchor=shell
anchor=target/n
anchor=obliterate
synPathEvType=Conflict_OBJ
anchor=ambush
anchor=torture
anchor=rape
anchor=gun
anchor=rape/n
synPath=COMP:against:OBJ
prevTokenAndType=Conflict_to
anchor=scald
synPathEvType=Conflict_SENT-1
chunkPath=follow_when
arg=Israeli
arg=israel
arg=countries
arg=Iran
prevToken=this
arg=Indonesia
prevToken=seized
prevTokenAndType=Transaction_captured
arg=bridge
arg=prison
anchor=back
prevToken=through
menType=FACILITY
arg=hotel
arg=another
arg=airport
prevTokenAndType=Transaction_of
prevTokenAndType=Transaction_,
synPathEvType=Transaction_OBJ
synPathEvType=Transaction_SBJ
synPathEvType=Transaction_ARG0
prevToken=use
chunkPath=precede_from
prevToken=take
anchor=abandon
anchor=secure
arg=Saint_Petersburg
prevToken=along
prevToken=entering
arg=Singapore
synPath=ADV:into:OBJ
arg=mall
arg=camp
arg=village
arg=saudi_arabia
arg=port
prevToken=enter
prevToken=across
arg=washington
arg=florida
arg=mars
arg=Paris
arg=Umm_Qasr
arg=heart
arg=Basra
arg=compound
arg=Mosul
prevToken=inside
arg=Najaf
arg=place
arg=Middle_East
arg=territory
arg=areas
synPath=COMP:over:OBJ
arg=room
prevTokenAndType=Movement_into
arg=buildings
prevToken=outside
arg=store
arg=checkpoint
prevToken=towards
arg=center
menType=LOCATION
prevToken=near
arg=home
arg=outskirts
arg=baghdad
arg=building
arg=part
arg=Pearl
arg=Greece
chunkPathAndType=Justice_follow_to
evTypeArg=Transport:Iraq
arg=border
arg=Baghdad
arg=area
chunkPathAndType=Movement_follow_into
arg=capital
arg=Kuwait
arg=town
arg=London
arg=hospital
prevToken=around
arg=france
arg=china
arg=desert
arg=Karbala
arg=New_York
arg=FL
chunkPathAndType=Transaction_precede_to
anchor=this
anchor=receive
prevTokenAndType=Transaction_from
anchor=raise
anchor=e
chunkPathAndType=Transaction_precede_have
chunkPathAndType=Conflict_follow_for
anchor=clash
chunkPathAndType=Conflict_follow_of
prevTokenAndType=Conflict_since
anchor=intifada/n
prevTokenAndType=Justice_'s
synPathEvType=Business_OBJ
prevToken=create
prevTokenAndType=Business_create
prevToken=down
anchor=create
anchor=shape
chunkPathAndType=Business_precede_to
synPathTypes=Conflict_FACILITY_OBJ
evTypeArg=Attack:buildings
synPathTypes=Conflict_FACILITY_COMP:on:OBJ
prevTokenAndType=Conflict_near
arg=cafe
chunkPathAndType=Conflict_follow_at
evTypeArg=Attack:baghdad
evTypeArg=Attack:outskirts
anchor=shooting/n
evTypeArg=Attack:building
prevTokenAndType=Conflict_down
evTypeArg=Attack:us
synPath=ADV:outside:OBJ
synPath=ADV:near:OBJ
synPathEvType=Conflict_ADV:near:OBJ
prevTokenAndType=Conflict_outside
chunkPathAndType=Conflict_follow_to
arg=palace
evTypeArg=Attack:hotel
arg=houses
prevTokenAndType=Conflict_use
anchor=threat/n
prevTokenAndType=Conflict_was
synPathEvType=Conflict_ADV:at:OBJ
synPath=ARG1-1
synPathEvType=Life_ARG1
anchor=wound/n
anchor=murder
chunkPathAndType=Life_follow_when
prevTokenAndType=Life_a
anchor=pound
of|:OBJ
prevTokenAndType=Life_said
chunkPathAndType=Life_precede_who
synPathEvType=Life_SENT-1
prevTokenAndType=Life_"
prevTokenAndType=Justice_)
chunkPathAndType=Justice_precede_have
arg=Pakistan
synPath=ADV:from:OBJ
prevTokenAndType=Transaction_to
chunkPathAndType=Justice_precede_face
synPath=OBJ-1:on:ADV-1
synPathEvType=Justice_OBJ-1:on:ADV-1
anchor=lawsuit/n
synPathEvType=Justice_N-POS
anchor=guilty
anchor=try
anchor=face
anchor=accuse
prevTokenAndType=Justice_at
anchor=case/n
anchor=pardon
prevToken=year
prevTokenAndType=Justice_year
prevTokenAndType=Justice_an
prevTokenAndType=Justice_a
evTypeArg=Appeal:court
evTypeArg=Convict:court
prevTokenAndType=Justice_The
evTypeArg=Trial-Hearing:court
evTypeArg=Sentence:court
evTypeArg=Charge-Indict:court
synPath=ARG0:in:OBJ
synPathEvType=Justice_COMP:to:OBJ
anchor=transfer/n
arg=Kut
arg=Malaysia
arg=West_Bank
arg=Gaza
arg=hills
arg=Northern_Ireland
arg=Jerusalem
arg=Fallujah
arg=Ohio
prevTokenAndType=Contact_with
chunkPathAndType=Contact_follow_with
synPathTypes=Contact_PERSON_COMP:with:OBJ
prevTokenAndType=Contact_"
synPathEvType=Contact_SBJ
synPathTypes=Contact_PERSON_SBJ
synPathEvType=Contact_ARG0
evTypeArg=Meet:Putin
evTypeArg=Meet:Bush
prevTokenAndType=Contact_of
chunkPathAndType=Contact_follow_of
synPathTypes=Contact_GPE_A-POS
synPathTypes=Contact_PERSON_ARG0
prevTokenAndType=Contact_between
synPath=COMP:between:OBJ
synPathEvType=Contact_COMP:between:OBJ
evTypeArg=Meet:North_Korea
synPathTypes=Contact_PERSON_T-POS
prevTokenAndType=Contact_)
evTypeArg=Meet:Al-Douri
arg=Annan
evTypeArg=Meet:Annan
prevTokenAndType=Contact_''
synPathTypes=Personnel_ORGANIZATION_OBJ
evTypeArg=Meet:leaders
synPathEvType=Contact_ARG2
evTypeArg=Demonstrate:Iraqis
chunkPathAndType=Contact_follow_between
synPathTypes=Contact_GPE_COMP:between:OBJ
prevTokenAndType=Contact_that
evTypeArg=Meet:officials
synPathEvType=Contact_OBJ
synPathTypes=Contact_PERSON_OBJ
evTypeArg=Meet:George_W._Bush
evTypeArg=Meet:He
synPathEvType=Contact_SENT-1
synPathTypes=Contact_PERSON_SENT-1
prevTokenAndType=Contact_told
prevTokenAndType=Contact_``
synPathTypes=Contact_PERSON_COMP:between:OBJ
synPathTypes=Contact_ORGANIZATION_COMP:with:OBJ
evTypeArg=Meet:Tony_Blair
chunkPathAndType=Contact_follow_to
evTypeArg=Meet:minister
evTypeArg=Meet:they
evTypeArg=Meet:their
prevTokenAndType=Contact_when
evTypeArg=Phone-Write:us
chunkPathAndType=Contact_precede_hold
evTypeArg=Meet:he
evTypeArg=Meet:we
synPathTypes=Personnel_ORGANIZATION_SBJ
evTypeArg=Meet:shareholders
evTypeArg=Meet:bush
evTypeArg=Phone-Write:we
evTypeArg=Phone-Write:you
chunkPathAndType=Personnel_follow_to
synPathTypes=Personnel_ORGANIZATION_COMP:to:OBJ
evTypeArg=Meet:members
prevTokenAndType=Contact_where
anchor=write
evTypeArg=Demonstrate:protesters
synPathTypes=Contact_PERSON_COMP:to:OBJ
evTypeArg=Meet:president
chunkPathAndType=Contact_precede_get
synPath=OBJ-1:get:SBJ
synPathEvType=Contact_OBJ-1:get:SBJ
synPathTypes=Contact_PERSON_OBJ-1:get:SBJ
chunkPathAndType=Contact_precede_will
prevTokenAndType=Contact_is
evTypeArg=Phone-Write:they
evTypeArg=Phone-Write:he
prevTokenAndType=Contact_what
chunkPathAndType=Contact_precede_have
synPathTypes=Contact_ORGANIZATION_SBJ
anchor=sit
evTypeArg=Phone-Write:I
prevTokenAndType=Contact_by
synPathTypes=Personnel_ORGANIZATION_A-POS-1
synPathEvType=Contact_ADV-1
synPathTypes=Contact_PERSON_ADV-1
synPathEvType=Contact_ADV:with:OBJ
evTypeArg=Meet:who
evTypeArg=Phone-Write:who
evTypeArg=Phone-Write:people
anchor=message/n
chunkPathAndType=Contact_precede_can
evTypeArg=Phone-Write:He
synPath=OBJ-1:send:COMP:to:OBJ
synPathEvType=Contact_OBJ-1:send:COMP:to:OBJ
prevTokenAndType=Contact_-
evTypeArg=Meet:I
synPathTypes=Contact_PERSON_N-POS
evTypeArg=Meet:board
evTypeArg=Meet:us
arg=George_W._Bush
synPathTypes=Conflict_PERSON_N-POS
chunkPathAndType=Conflict_precede_go_to
chunkPath=precede_have_(_negated_)
chunkPath=precede_-_GPE
chunkPath=precede_may_have
arg=unit
arg=some
menType=ORGANIZATION
arg=They
chunkPath=precede_'ll
prevToken=what
arg=team
arg=sons
arg=troops
arg=We
prevToken=not
prevToken=reports
chunkPath=precede_'ve
arg=which
chunkPath=follow_between
prevToken=between
chunkPath=follow_in_GPE_,
prevToken=Because
arg=Germany
prevToken=while
arg=Arafat
synPath=OBJ-1:do:SBJ
arg=regime
arg=group
arg=administration
arg=army
synPathTypes=Conflict_PERSON_ARG0
prevToken=sure
arg=two
synPathTypes=Conflict_PERSON_SBJ
synPath=OBJ-1:take:SBJ
prevToken=give
chunkPathAndType=Conflict_follow_by
prevToken=long
arg=Palestinians
chunkPath=precede_'d
arg=American
arg=Palestinian
prevToken=who
synPath=COMP:by:OBJ
chunkPath=precede_on
arg=groups
arg=North_Korea
arg=Tony_Blair
chunkPath=precede_schedule_to
arg=Kelly
arg=representatives
arg=family
prevToken=ordered
arg=that
arg=company
arg=diplomats
arg=saddam_hussein
arg=many
synPath=ADV:with:OBJ
arg=Kurds
arg=guys
arg=friends
prevToken=When
arg=women
arg=mother
chunkPath=precede_will_be
prevToken=do
prevToken=brought
arg=kramers
chunkPath=precede_expect_to
chunkPath=precede_didn't
chunkPath=precede_make
arg=friend
prevToken=told
arg=thousands
anchor=retreat/n
arg=sides
prevToken=visited
arg=EU
of|:OBJ:coffer:T-POS
arg=companies
arg=fbi
arg=USCF
anchor=spend
arg=MCI
arg=party
arg=airline
arg=firm
arg=enron
anchor=talks/n
arg=protesters
arg=american
arg=me
prevToken=``
prevToken=leaving
arg=police
arg=families
synPath=IND-OBJ
chunkPath=precede_don't
arg=commanders
arg=Yasser_Arafat
chunkPath=follow_,_include
prevToken=let
synPath=ADV:include:OBJ
arg=delegates
synPathTypes=Personnel_GPE_SBJ
prevToken=tell
synPathTypes=Justice_ORGANIZATION_SBJ
synPathTypes=Justice_GPE_SBJ
prevToken=But
prevToken=asked
arg=AIG
anchor=forum/n
synPathEvType=Contact_ARG1
prevToken=compensating
arg=SEC
prevToken=paid
arg=stewart
prevTokenAndType=Justice_against
arg=paper
synPathTypes=Justice_ORGANIZATION_ARG0
arg=shareholders
arg=judges
anchor=fine
arg=Vivendi
chunkPath=follow_out-of
prevTokenAndType=Contact_said
evTypeArg=Attack:U.S
evTypeArg=Attack:military
synPathTypes=Conflict_ORGANIZATION_SBJ
evTypeArg=Attack:militants
evTypeArg=Attack:groups
synPath=OBJ-1:open:SBJ
synPathEvType=Conflict_OBJ-1:open:SBJ
synPathTypes=Conflict_PERSON_OBJ-1:open:SBJ
synPathTypes=Conflict_GPE_SBJ
evTypeArg=Attack:US
evTypeArg=Attack:u.s
evTypeArg=Attack:coalition
evTypeArg=Attack:terrorist
evTypeArg=Attack:america
evTypeArg=Attack:israeli
evTypeArg=Attack:group
synPathTypes=Conflict_PERSON_SENT-1
synPath=OBJ-1:carry:SBJ
synPathEvType=Conflict_OBJ-1:carry:SBJ
synPathTypes=Conflict_PERSON_OBJ-1:carry:SBJ
chunkPathAndType=Conflict_follow_between
evTypeArg=Attack:Palestinian
evTypeArg=Attack:North_Korea
evTypeArg=Attack:Japan
chunkPathAndType=Conflict_precede_'s
arg=marines
anchor=push
arg=force
arg=7th_Cavalry
arg=division
arg=fighters
arg=Israelis
arg=soldiers
arg=Marines
arg=terrorists
arg=enemy
arg=forces
arg=parts
arg=units
prevToken=As
arg=soldier
arg=mob
arg=troop
arg=gunman
chunkPath=precede_--
prevToken=sent
synPath=ADV:between:OBJ
prevToken=him
arg=others
chunkPath=precede_that
synPath=ADV:by:OBJ
prevTokenAndType=Conflict_which
prevTokenAndType=Conflict_about
arg=hamas
evTypeArg=Attack:troops
evTypeArg=Attack:forces
prevTokenAndType=Conflict_)
evTypeArg=Attack:Iraqis
evTypeArg=Attack:Marines
evTypeArg=Attack:soldiers
prevTokenAndType=Conflict_whether
evTypeArg=Attack:who
evTypeArg=Attack:he
evTypeArg=Attack:she
evTypeArg=Attack:units
prevTokenAndType=Conflict_where
evTypeArg=Attack:iraqis
synPath=SBJ-1:kill:OBJ
synPathEvType=Conflict_SBJ-1:kill:OBJ
synPathTypes=Conflict_PERSON_SBJ-1:kill:OBJ
anchor=targeting
evTypeArg=Attack:hamas
evTypeArg=Attack:others
evTypeArg=Attack:those
evTypeArg=Attack:Saddam
evTypeArg=Attack:you
prevTokenAndType=Conflict_killing
synPathTypes=Conflict_PERSON_COMP:with:OBJ
evTypeArg=Attack:man
prevTokenAndType=Conflict_including
prevTokenAndType=Conflict_attack
evTypeArg=Attack:regime
evTypeArg=Attack:civilians
chunkPathAndType=Conflict_precede_kill_in
evTypeArg=Attack:members
synPathTypes=Conflict_PERSON_ARG1
evTypeArg=Attack:him
synPathTypes=Conflict_PERSON_COMP:at:OBJ
anchor=punch/n
arg=Republican_Guard
evTypeArg=Attack:Republican_Guard
evTypeArg=Attack:fighters
evTypeArg=Attack:They
evTypeArg=Attack:militia
prevTokenAndType=Conflict_engage
evTypeArg=Attack:We
evTypeArg=Attack:terrorists
prevTokenAndType=Conflict_are
evTypeArg=Attack:woman
evTypeArg=Attack:his
evTypeArg=Attack:her
evTypeArg=Attack:Israelis
evTypeArg=Attack:them
evTypeArg=Attack:they
prevTokenAndType=Conflict_say
prevTokenAndType=Conflict_if
evTypeArg=Attack:one
chunkPathAndType=Conflict_follow_,
prevTokenAndType=Conflict_out
synPathTypes=Conflict_PERSON_OBJ
arg=civilians
evTypeArg=Attack:person
anchor=poison
prevToken=killing
arg=those
anchor=beat
arg=victims
arg=iraqis
arg=commandos
arg=militia
synPath=OBJ-1:face:SBJ
prevTokenAndType=Conflict_have
prevTokenAndType=Conflict_between
synPath=OBJ-1:in:COMP-1:involve:OBJ
synPathEvType=Conflict_OBJ-1:in:COMP-1:involve:OBJ
evTypeArg=Attack:bomber
prevTokenAndType=Conflict_had
chunkPathAndType=Conflict_precede_have
anchor=use/n
chunkPathAndType=Conflict_precede_involve_in
prevToken=firing
prevTokenAndType=Conflict_why
prevTokenAndType=Conflict_--
arg=bomber
chunkPath=precede_involve_in
arg=israelis
arg=attacker
arg=attackers
arg=Sharif
arg=military
arg=sniper
arg=malvo
arg=militant
arg=extremists
arg=coalition
chunkPath=precede_begin
arg=gunmen
synPathTypes=Movement_PERSON_OBJ
synPathTypes=Transaction_FACILITY_OBJ
evTypeArg=Transport:Bush
synPathTypes=Transaction_WEA_OBJ
synPathTypes=Movement_PERSON_T-POS
evTypeArg=Transfer-Ownership:airport
synPathTypes=Movement_PERSON_ARG0
evTypeArg=Transport:bush
evTypeArg=Transfer-Ownership:weapons
evTypeArg=Transfer-Ownership:base
evTypeArg=Transport:their
evTypeArg=Transport:president
evTypeArg=Transport:Iraqis
evTypeArg=Transport:journalists
prevTokenAndType=Movement_:
chunkPathAndType=Movement_precede_can
prevTokenAndType=Movement_sent
prevTokenAndType=Movement_before
chunkPathAndType=Movement_precede_'s
synPathTypes=Transaction_VEH_OBJ
evTypeArg=Transport:him
prevToken=send
prevTokenAndType=Movement_send
evTypeArg=Transport:person
chunkPathAndType=Movement_precede_want_to
synPathTypes=Movement_PERSON_COMP
prevToken=provides
evTypeArg=Transport:our
prevToken=sell
prevTokenAndType=Transaction_sell
anchor=penetrate
anchor=thrust
prevTokenAndType=Movement_get
arg=base
anchor=show
anchor=approach
anchor=withdraw
prevTokenAndType=Movement_make
prevTokenAndType=Movement_-
evTypeArg=Transport:unit
chunkPathAndType=Movement_follow_over
anchor=ship
synPathEvType=Movement_N-POS
anchor=deport
prevTokenAndType=Movement_for
anchor=voyage/n
anchor=pour
synPathEvType=Movement_COMP
anchor=close
prevTokenAndType=Movement_and
prevToken=make
arg=house
anchor=launch/n
prevToken=now
anchor=tour/n
anchor=bring
anchor=deploy
anchor=airlifting
anchor=haul
prevTokenAndType=Movement_to
prevTokenAndType=Movement_of
prevTokenAndType=Movement_as
anchor=transport
synPathEvType=Movement_SBJ
prevTokenAndType=Movement_)
chunkPathAndType=Movement_precede_have
synPathEvType=Movement_SENT-1
synPathEvType=Movement_ARG0
anchor=direct
prevTokenAndType=Movement_from
chunkPathAndType=Movement_follow_of
anchor=way/n
prevTokenAndType=Movement_through
anchor=follow
prevTokenAndType=Movement_see
anchor=due
synPathEvType=Movement_OBJ
anchor=land
evTypeArg=Transport:it
anchor=landing/n
anchor=roll
evTypeArg=Transport:some
prevTokenAndType=Movement_--
chunkPath=precede_do
synPathEvType=Transaction_SENT-1
prevTokenAndType=Transaction_"
prevTokenAndType=Transaction_and
chunkPathAndType=Transaction_precede_be
synPathTypes=Transaction_ORGANIZATION_SBJ
prevTokenAndType=Transaction_--
synPathTypes=Transaction_ORGANIZATION_ARG0
chunkPathAndType=Transaction_follow_of
synPathEvType=Transaction_N-POS
prevTokenAndType=Transaction_over
arg=silver_cross
arg=business
prevToken=than
prevToken=So
arg=target
menType=WEA
prevToken=prevent
menType=VEH
arg=tanks
arg=aircraft
arg=ship
arg=car
arg=more
arg=Most
arg=journalists
anchor=kick
arg=plane
arg=cars
arg=arms
arg=missiles
arg=weapons
arg=ammunition
arg=rifle
chunkPath=follow_off
prevToken=off
arg=passengers
evTypeArg=Transport:who
arg=sister
synPathTypes=Movement_PERSON_SBJ
evTypeArg=Transport:troops
evTypeArg=Transport:forces
evTypeArg=Transport:he
synPathTypes=Movement_PERSON_SENT-1
evTypeArg=Transport:she
prevTokenAndType=Movement_where
evTypeArg=Transport:soldiers
prevTokenAndType=Movement_say
evTypeArg=Transport:we
chunkPath=precede_try_to
evTypeArg=Transport:We
chunkPathAndType=Movement_precede_expect_to
evTypeArg=Transport:that
evTypeArg=Transport:you
evTypeArg=Transport:They
evTypeArg=Transport:officials
evTypeArg=Transport:I
evTypeArg=Transport:He
chunkPathAndType=Movement_precede_try_to
chunkPathAndType=Movement_precede_'ll
prevTokenAndType=Movement_have
chunkPathAndType=Movement_precede_will_be
synPathTypes=Movement_PERSON_ADV-1
evTypeArg=Transport:us
chunkPathAndType=Movement_precede_could
chunkPath=precede_be_able_to
anchor=clear
chunkPathAndType=Movement_follow_by
evTypeArg=Transport:people
anchor=expel
anchor=evacuate
chunkPathAndType=Movement_precede_have_be
prevTokenAndType=Movement_with
prevTokenAndType=Movement_when
prevTokenAndType=Movement_said
evTypeArg=Transport:they
chunkPathAndType=Movement_precede_will
chunkPathAndType=Movement_precede_have_to
synPathTypes=Transaction_ORGANIZATION_OBJ
prevTokenAndType=Transaction_with
chunkPath=precede_would_be
arg=Ocalan
prevToken=ship
synPath=COMP:of:COMP
prevTokenAndType=Transaction_out
prevToken=acquiring
prevTokenAndType=Transaction_acquiring
prevToken=buy
prevTokenAndType=Transaction_buy
evTypeArg=Transfer-Ownership:it
anchor=bid/n
evTypeArg=Transfer-Ownership:company
evTypeArg=Transfer-Ownership:they
evTypeArg=Transport:her
chunkPathAndType=Movement_precede_make
prevTokenAndType=Movement_because
anchor=acquisition/n
anchor=buys
anchor=control/n
evTypeArg=Transfer-Ownership:them
anchor=swallow
anchor=purchase/n
anchor=purchase
chunkPathAndType=Transaction_follow_for
synPathTypes=Movement_VEH_SBJ
synPathTypes=Movement_VEH_OBJ
prevTokenAndType=Movement_after
arg=rovers
evTypeArg=Transport:rovers
evTypeArg=Transport:plane
prevTokenAndType=Movement_As
prevTokenAndType=Movement_take
prevToken=sending
prevTokenAndType=Movement_sending
prevTokenAndType=Movement_took
evTypeArg=Transport:car
synPathTypes=Movement_LOCATION_COMP:into:OBJ
prevTokenAndType=Movement_along
synPathTypes=Movement_GPE_COMP:into:OBJ
evTypeArg=Transport:Seoul
synPathTypes=Movement_LOCATION_COMP:to:OBJ
prevTokenAndType=Movement_entering
synPathEvType=Movement_ADV:into:OBJ
prevTokenAndType=Movement_enter
evTypeArg=Transport:center
synPathTypes=Movement_GPE_ADV
prevToken=come
prevTokenAndType=Movement_come
arg=planet
evTypeArg=Transport:planet
chunkPathAndType=Movement_follow_at
evTypeArg=Transport:mars
evTypeArg=Transport:there
prevTokenAndType=Movement_visited
synPathEvType=Movement_COMP:at:OBJ
evTypeArg=Transport:base
synPathTypes=Movement_FACILITY_ADV
synPathTypes=Movement_LOCATION_ADV
prevTokenAndType=Movement_towards
prevTokenAndType=Movement_reached
synPathTypes=Movement_FACILITY_COMP:at:OBJ
chunkPath=follow_back_to
chunkPathAndType=Movement_follow_back_to
synPathEvType=Movement_COMP:over:OBJ
evTypeArg=Transport:territory
prevTokenAndType=Movement_up
evTypeArg=Transport:house
prevToken=coming
prevTokenAndType=Movement_coming
arg=New_England
evTypeArg=Transport:New_England
arg=Boston
evTypeArg=Transport:Boston
arg=lobby
prevTokenAndType=Movement_a
synPath=ADV:within:OBJ
arg=site
chunkPath=follow_towards
evTypeArg=Transport:Turkey
evTypeArg=Transport:United_States
prevTokenAndType=Movement_between
synPath=COMP:through:OBJ
to|:OBJ
prevToken=reached
chunkPath=follow_him_to
chunkPath=follow_him
chunkPath=follow_her_to
chunkPathAndType=Movement_follow_to
synPathTypes=Movement_GPE_COMP:to:OBJ
evTypeArg=Transport:border
synPathTypes=Movement_GPE_COMP:in:OBJ
synPathEvType=Movement_COMP:into:OBJ
evTypeArg=Transport:area
evTypeArg=Transport:Baghdad
evTypeArg=Transport:city
synPathTypes=Movement_GPE_OBJ
synPathTypes=Movement_FACILITY_COMP:to:OBJ
synPathTypes=Movement_FACILITY_OBJ
synPathTypes=Movement_LOCATION_OBJ
evTypeArg=Transport:country
evTypeArg=Transport:home
evTypeArg=Transport:airport
evTypeArg=Transport:iraq
evTypeArg=Transport:baghdad
synPathTypes=Movement_FACILITY_COMP:into:OBJ
evTypeArg=Transport:town
prevToken=toward
prevTokenAndType=Movement_toward
chunkPath=follow_toward
chunkPathAndType=Movement_follow_toward
synPath=COMP:toward:OBJ
synPathEvType=Movement_COMP:toward:OBJ
evTypeArg=Transport:here
evTypeArg=Transport:Kuwait
evTypeArg=Transport:capital
synPathTypes=Movement_GPE_COMP:toward:OBJ
evTypeArg=Transport:desert
chunkPath=follow_through
chunkPathAndType=Movement_follow_through
evTypeArg=Transport:outskirts
evTypeArg=Transport:hospital
evTypeArg=Transport:building
synPath=ADV:to:OBJ
synPathEvType=Movement_ADV:to:OBJ
arg=Afghanistan
evTypeArg=Transport:Afghanistan
synPathEvType=Movement_COMP:through:OBJ
evTypeArg=Transport:state
chunkPathAndType=Movement_follow_her_to
arg=jurisdiction
evTypeArg=Transport:London
arg=Niagara_Falls
evTypeArg=Transport:Niagara_Falls
anchor=park
as|:OBJ:nil:NPREP:of:OBJ
synPath=SBJ:ceo:NPREP:of:OBJ:company:NPREP:|such
synPathEvType=Transaction_SBJ:ceo:NPREP:of:OBJ:company:NPREP:|such
synPathTypes=Transaction_PERSON_SBJ:ceo:NPREP:of:OBJ:company:NPREP:|such
as|:OBJ:nil:NPREP:of:OBJ:nil:NPREP:of:OBJ:nil:APPOSITE
evTypeArg=Transfer-Money:USCF
anchor=feathering
anchor=fund
evTypeArg=Transfer-Money:they
anchor=support/n
evTypeArg=Transfer-Money:him
evTypeArg=Transfer-Money:government
evTypeArg=Transfer-Money:someone
anchor=pay/n
prevTokenAndType=Transaction_by
anchor=aid/n
prevTokenAndType=Transaction_)
prevTokenAndType=Transaction_that
synPathTypes=Transaction_PERSON_SBJ
chunkPathAndType=Transaction_precede_'s
synPathEvType=Transaction_T-POS
synPathTypes=Transaction_PERSON_OBJ
synPathTypes=Transaction_PERSON_ARG0
anchor=donate
evTypeArg=Transfer-Money:he
evTypeArg=Transfer-Money:Arafat
evTypeArg=Transfer-Money:member
arg=Vivendi_Universal
chunkPathAndType=Transaction_follow_from
synPathEvType=Transaction_COMP:from:OBJ
synPathTypes=Transaction_PERSON_COMP:from:OBJ
synPathTypes=Transaction_GPE_SBJ
chunkPathAndType=Transaction_follow_by
prevTokenAndType=Transaction_if
prevTokenAndType=Transaction_when
prevTokenAndType=Transaction_as
synPathEvType=Conflict_COMP:of:OBJ
prevToken=After
synPathTypes=Business_ORGANIZATION_OBJ
evTypeArg=Start-Org:government
evTypeArg=End-Org:regime
chunkPathAndType=Business_precede_file_for
evTypeArg=Declare-Bankruptcy:enron
chunkPathAndType=Business_precede_be
prevTokenAndType=Business_of
anchor=merger/n
synPathEvType=Business_ARG1
synPathTypes=Business_ORGANIZATION_ARG1
anchor=merge
prevTokenAndType=Business_with
prevTokenAndType=Business_up
prevToken=(
prevTokenAndType=Business_)
synPathEvType=Business_SBJ
synPathTypes=Business_ORGANIZATION_SBJ
prevTokenAndType=Business_.
prevTokenAndType=Business_,
prevTokenAndType=Business_and
arg=organizations
anchor=crumble
synPathTypes=Conflict_VEH_OBJ
evTypeArg=Attack:boy
prevTokenAndType=Conflict_perhaps
prevToken=destroyed
prevTokenAndType=Conflict_destroyed
evTypeArg=Attack:convoy
evTypeArg=Attack:bus
prevToken=targeting
prevTokenAndType=Conflict_targeting
prevToken=slaughtered
prevTokenAndType=Conflict_slaughtered
synPathTypes=Conflict_PERSON_COMP:on:OBJ
synPath=OBJ-1:in:ADV-1:injure:OBJ
synPathEvType=Conflict_OBJ-1:in:ADV-1:injure:OBJ
synPathTypes=Conflict_PERSON_OBJ-1:in:ADV-1:injure:OBJ
arg=divisions
evTypeArg=Attack:divisions
synPathTypes=Conflict_ORGANIZATION_OBJ
synPath=OBJ-1:in:COMP-1:kill:OBJ
synPathEvType=Conflict_OBJ-1:in:COMP-1:kill:OBJ
synPathTypes=Conflict_PERSON_OBJ-1:in:COMP-1:kill:OBJ
evTypeArg=Attack:journalists
chunkPath=follow_and_kill
chunkPathAndType=Conflict_follow_and_kill
synPathTypes=Conflict_PERSON_COMP:against:OBJ
synPathTypes=Conflict_VEH_COMP:on:OBJ
synPathTypes=Conflict_VEH_SBJ
evTypeArg=Attack:tanks
prevTokenAndType=Conflict_shot
evTypeArg=Attack:aircraft
evTypeArg=Attack:ship
evTypeArg=Attack:helicopter
evTypeArg=Attack:planes
evTypeArg=Attack:car
arg=guns
evTypeArg=Attack:guns
synPathEvType=Conflict_COMP-1:be:SBJ
prevToken=shot
arg=vehicles
arg=planes
arg=helicopter
prevToken=perhaps
prevToken=kill
prevToken=injuring
arg=civilian
prevToken=wounding
arg=grandmother
arg=Ferguson
prevToken=caused
arg=himself
arg=journalist
arg=4-year-old
arg=convoy
prevToken=clear
arg=bus
synPathTypes=Conflict_WEA_COMP:with:OBJ
synPathTypes=Conflict_WEA_SBJ
synPathTypes=Conflict_WEA_OBJ
arg=explosives
prevToken=detonated
prevTokenAndType=Life_detonated
synPath=ADV-1:detonate:OBJ
synPathEvType=Life_ADV-1:detonate:OBJ
synPathTypes=Life_WEA_ADV-1:detonate:OBJ
arg=bomb
evTypeArg=Attack:bomb
evTypeArg=Attack:arms
arg=missile
arg=warplanes
evTypeArg=Attack:warplanes
evTypeArg=Attack:missile
evTypeArg=Die:explosives
evTypeArg=Attack:explosives
prevTokenAndType=Conflict_detonated
evTypeArg=Attack:weapons
evTypeArg=Attack:missiles
arg=artillery
evTypeArg=Attack:artillery
arg=bombs
evTypeArg=Attack:bombs
synPathTypes=Conflict_WEA_N-POS
arg=anthrax
evTypeArg=Attack:anthrax
prevTokenAndType=Conflict_dropped
prevToken=second
prevTokenAndType=Life_second
prevTokenAndType=Conflict_using
synPath=N-POS-1:sorties:SBJ-1:use:OBJ
synPathEvType=Conflict_N-POS-1:sorties:SBJ-1:use:OBJ
synPathTypes=Conflict_WEA_N-POS-1:sorties:SBJ-1:use:OBJ
prevTokenAndType=Conflict_drop
arg=rounds
prevTokenAndType=Conflict_fired
prevToken=opened
arg=bullet
arg=knife
synPathTypes=Life_WEA_N-POS
evTypeArg=Die:bomb
prevToken=suicide
arg=mortars
evTypeArg=Injure:bullet
arg=gun
evTypeArg=Attack:gun
anchor=hurt
prevTokenAndType=Life_by
anchor=deadly
anchor=blind
prevToken=keep
prevToken=represent
prevToken=dropped
prevToken=drop
arg=carrier
arg=rocket
prevToken=using
evTypeArg=Die:Marines
arg=crew
evTypeArg=Die:crew
synPathEvType=Life_N-POS-1
synPathTypes=Life_PERSON_N-POS-1
chunkPathAndType=Life_follow_,_include
synPathEvType=Life_ADV:include:OBJ
synPathTypes=Life_PERSON_ADV:include:OBJ
evTypeArg=Injure:people
synPathTypes=Life_PERSON_ARG1
prevTokenAndType=Life_whether
evTypeArg=Die:civilians
prevTokenAndType=Life_kill
evTypeArg=Injure:others
evTypeArg=Die:wife
evTypeArg=Injure:he
prevTokenAndType=Life_which
evTypeArg=Die:civilian
evTypeArg=Die:journalist
chunkPathAndType=Life_precede_,_be
evTypeArg=Die:He
evTypeArg=Die:Americans
evTypeArg=Die:children
prevTokenAndType=Life_wounding
prevTokenAndType=Life_injuring
evTypeArg=Die:son
prevToken=murdering
prevTokenAndType=Life_murdering
chunkPath=follow_PERSON_and
chunkPathAndType=Life_follow_PERSON_and
evTypeArg=Die:Arafat
evTypeArg=Injure:children
synPath=SBJ:leader:APPOSITE
synPathEvType=Life_SBJ:leader:APPOSITE
synPathTypes=Life_PERSON_SBJ:leader:APPOSITE
prevToken=leader
prevTokenAndType=Life_leader
prevToken=surrounding
prevTokenAndType=Life_surrounding
chunkPath=precede_illness_and
chunkPathAndType=Life_precede_illness_and
prevTokenAndType=Life_lost
arg=THOUSANDS
evTypeArg=Die:THOUSANDS
synPathEvType=Life_COMP:of:OBJ
synPathTypes=Life_PERSON_COMP:of:OBJ
arg=Jews
evTypeArg=Die:Jews
evTypeArg=Die:people
evTypeArg=Die:bomber
prevTokenAndType=Life_including
evTypeArg=Die:troops
evTypeArg=Die:members
prevTokenAndType=Life_killing
evTypeArg=Die:her
evTypeArg=Die:soldiers
prevTokenAndType=Life_where
evTypeArg=Die:journalists
prevTokenAndType=Life_say
evTypeArg=Die:woman
evTypeArg=Die:mother
evTypeArg=Die:who
evTypeArg=Die:he
evTypeArg=Die:soldier
evTypeArg=Die:you
evTypeArg=Die:man
evTypeArg=Die:they
evTypeArg=Die:Iraqis
evTypeArg=Die:women
evTypeArg=Die:person
synPathTypes=Life_PERSON_SENT-1
evTypeArg=Die:terrorists
evTypeArg=Die:Yasser_Arafat
evTypeArg=Die:his
evTypeArg=Die:she
evTypeArg=Injure:one
evTypeArg=Die:men
evTypeArg=Die:group
prevToken=plus
arg=reporter
chunkPath=follow_include
chunkPathAndType=Business_follow_by
synPathTypes=Business_PERSON_SBJ
synPathTypes=Movement_GPE_SBJ
synPathTypes=Movement_ORGANIZATION_SBJ
evTypeArg=Arrest-Jail:police
synPathTypes=Life_GPE_SBJ
evTypeArg=Arrest-Jail:we
chunkPathAndType=Life_follow_by
evTypeArg=Die:Scott_Peterson
prevTokenAndType=Life_Trial
chunkPath=precede_find_guilty_of
chunkPathAndType=Life_precede_find_guilty_of
synPathEvType=Life_OBJ-1:do:SBJ
synPathTypes=Life_PERSON_OBJ-1:do:SBJ
evTypeArg=Start-Org:they
synPathTypes=Life_ORGANIZATION_SBJ
arg=Scott_Peterson
prevToken=Trial
arg=Peterson
prevTokenAndType=Justice_by
prevTokenAndType=Justice_are
synPathEvType=Justice_ADV:by:OBJ
chunkPathAndType=Justice_follow_by
prevTokenAndType=Business_by
(contraction)|:SBJ:that:SBJ-1:grippedd:ADV:since:OBJ
evTypeArg=Transfer-Money:reporter
prevToken=paying
prevTokenAndType=Transaction_paying
anchor=compensation/n
arg=Member
evTypeArg=Transfer-Money:Member
evTypeArg=Transfer-Money:members
arg=lawyers
prevToken=given
prevTokenAndType=Transaction_pay
anchor=out-raised
prevTokenAndType=Transaction_paid
prevTokenAndType=Transaction_:
synPathEvType=Transaction_COMP:to:OBJ
synPathTypes=Transaction_GPE_COMP:to:OBJ
chunkPathAndType=Transaction_follow_to
synPathTypes=Transaction_ORGANIZATION_COMP:to:OBJ
synPathTypes=Transaction_PERSON_COMP:to:OBJ
synPathEvType=Transaction_IND-OBJ
synPathTypes=Transaction_PERSON_IND-OBJ
prevTokenAndType=Transaction_give
evTypeArg=Transfer-Money:her
evTypeArg=Sentence:his
evTypeArg=Sentence:He
arg=Basson
chunkPathAndType=Justice_follow_against
synPathEvType=Justice_COMP:against:OBJ
arg=executives
evTypeArg=Charge-Indict:executives
arg=terry_nichols
synPathTypes=Justice_ORGANIZATION_OBJ
synPathTypes=Justice_PERSON_COMP:against:OBJ
synPathEvType=Justice_OBJ-1:face:SBJ
evTypeArg=Charge-Indict:she
evTypeArg=Charge-Indict:her
evTypeArg=Sentence:sam_waksal
evTypeArg=Convict:he
evTypeArg=Sentence:him
prevTokenAndType=Justice_Trial
evTypeArg=Convict:Scott_Peterson
chunkPath=precede_find
chunkPathAndType=Justice_precede_find
(contraction)|:COMP-1:crime:OBJ-1:of:COMP-1:guilty:ADV-1:be:SBJ
synPathTypes=Justice_PERSON_COMP-1:|be
evTypeArg=Sue:companies
arg=Dell
evTypeArg=Sue:Dell
evTypeArg=Sentence:your
prevToken=suing
prevTokenAndType=Justice_suing
prevTokenAndType=Justice_sued
synPathTypes=Justice_GPE_OBJ
chunkPathAndType=Justice_follow_on
prevTokenAndType=Justice_over
prevTokenAndType=Justice_including
anchor=find
anchor=verdict/n
anchor=prosecute
arg=Anwar_Ibrahim
anchor=lawsuits/n
prevTokenAndType=Justice_give
evTypeArg=Sue:he
synPathTypes=Justice_PERSON_N-POS
evTypeArg=Sentence:he
evTypeArg=Charge-Indict:he
evTypeArg=Sentence:they
prevTokenAndType=Justice_this
evTypeArg=Charge-Indict:they
evTypeArg=Convict:they
prevTokenAndType=Justice_serving
prevTokenAndType=Justice_get
prevTokenAndType=Justice_because
menType=Crime
arg=corruption
arg=blasphemy
arg=sodomy
synPathTypes=Justice_Crime_N-POS
evTypeArg=Sentence:corruption
evTypeArg=Sentence:sodomy
arg=treason
evTypeArg=Appeal:sodomy
evTypeArg=Convict:sodomy
synPathEvType=Justice_COMP:for:OBJ
synPathTypes=Justice_Crime_COMP:for:OBJ
synPathEvType=Justice_COMP:of:COMP
synPathTypes=Justice_Crime_COMP:of:COMP
as|:COMP
synPath=COMP:for:COMP
synPathEvType=Justice_COMP:for:COMP
synPathTypes=Justice_Crime_COMP:for:COMP
synPath=ADV:on:OBJ:charge:N-POS
synPathEvType=Justice_ADV:on:OBJ:charge:N-POS
synPathTypes=Justice_Crime_ADV:on:OBJ:charge:N-POS
arg=murder
chunkPath=follow_on_charge_of
chunkPathAndType=Justice_follow_on_charge_of
evTypeArg=Trial-Hearing:murder
arg=obstruction_of_justice
synPath=SBJ:nil:SBJ-1
synPathEvType=Justice_SBJ:nil:SBJ-1
synPathTypes=Justice_Crime_SBJ:nil:SBJ-1
arg=murdering_his_wife_Laci_and_their_unborn_son
evTypeArg=Convict:murdering_his_wife_Laci_and_their_unborn_son
synPath=OBJ:nil:SBJ-1
synPathEvType=Justice_OBJ:nil:SBJ-1
synPathTypes=Justice_Crime_OBJ:nil:SBJ-1
synPathEvType=Justice_COMP:of:OBJ
synPathTypes=Justice_Crime_COMP:of:OBJ
chunkPath=precede_file
chunkPathAndType=Justice_precede_file
chunkPathAndType=Justice_follow_with
prevTokenAndType=Justice_as
prevToken=faces
prevTokenAndType=Justice_faces
evTypeArg=Appeal:his
evTypeArg=Appeal:Anwar
arg=Bechtel
arg=Sam_Sloan
evTypeArg=Trial-Hearing:judge
(contraction)|:ADV:|up
arg=jury
menType=Sentence
synPathTypes=Justice_Sentence_N-POS
synPathTypes=Justice_Sentence_T-POS
synPath=COMP:to:OBJ:year:T-POS
synPathEvType=Justice_COMP:to:OBJ:year:T-POS
synPathTypes=Justice_Sentence_COMP:to:OBJ:year:T-POS
arg=the_death_penalty
evTypeArg=Sentence:the_death_penalty
synPath=OBJ:penalty:T-POS
synPathEvType=Justice_OBJ:penalty:T-POS
synPathTypes=Justice_Sentence_OBJ:penalty:T-POS
chunkPathAndType=Justice_precede_in
chunkPath=follow_:
chunkPathAndType=Transaction_follow_:
synPathTypes=Transaction_Numeric_OBJ
menType=Numeric
evTypeArg=Transfer-Ownership:Iran
synPathEvType=Movement_COMP:from:OBJ
chunkPathAndType=Movement_follow_from
prevTokenAndType=Movement_leave
synPathTypes=Movement_GPE_COMP:from:OBJ
synPathTypes=Movement_FACILITY_COMP:from:OBJ
synPathEvType=Movement_ADV:from:OBJ
synPathTypes=Movement_LOCATION_ADV:from:OBJ
synPathEvType=Movement_ADV:of:OBJ
prevTokenAndType=Movement_leaving
chunkPathAndType=Movement_follow_out-of
evTypeArg=Transfer-Ownership:she
evTypeArg=Transfer-Ownership:forces
evTypeArg=Transfer-Ownership:troops
evTypeArg=Transfer-Ownership:him
evTypeArg=Transport:tanks
evTypeArg=Transport:vehicles
prevToken=aboard
prevTokenAndType=Movement_aboard
arg=prosecutors
evTypeArg=Trial-Hearing:prosecutors
evTypeArg=Charge-Indict:prosecutors
14.404682738553102
16.53945471526872
18.84584740793075
27.30658421278661
26.09701126761516
16.00294006177666
12.594322374575187
12.594322374575187
16.688437880291286
11.214947150041365
23.37892629628765
9.398790600018962
9.398790600018962
9.398790600018962
13.60258101187981
13.60258101187981
9.073096098770524
21.4459158329819
26.80008760413269
12.78763865670178
19.30846837384471
16.43918663008639
15.30711218535714
15.30711218535714
21.63943343697587
19.32224847411991
11.575518223932734
11.575518223932734
13.943865959994534
10.60899892806642
14.702766736550418
9.121410269969141
8.089895520351938
8.089895520351938
15.982169014704738
12.796165043750129
11.367663674769755
11.367663674769755
11.367663674769755
9.072063879554747
17.52694752420096
6.754926422109213
6.754926422109213
6.754926422109213
6.754926422109213
6.754926422109213
6.754926422109213
6.993736152417859
6.993736152417859
6.993736152417859
6.993736152417859
6.993736152417859
25.885893072360794
16.616447235223095
14.4077514670658
8.951578149718442
10.523952210651597
11.642864508873068
11.76623293429404
18.643950089720775
29.167543937813832
16.401372916280646
14.274872243641072
17.275288879930034
9.08975773443322
28.29943395665595
19.141233205386992
14.53591961644991
14.53591961644991
10.37895629557379
5.4821320013975345
4.238036336966472
10.610497954098442
12.78980569222117
3.1880368077313936
5.428031583277426
15.980511928929507
6.936630631132617
9.201907397024382
6.936630631132617
9.201907397024382
4.675999789873564
12.115487841185995
4.675999789873564
12.115487841185995
12.77421871865496
9.181494659223407
28.608013575223307
8.36410176316177
13.845162365970971
29.61361002626726
11.376761121523657
3.965550161936178
14.885610532057118
18.334045396327845
9.006465718436733
6.445890094256007
3.7509375747849014
16.672904428465817
8.468165619322043
-2.1470571835967314
4.058066398409581
2.8713301639896356
7.205907951935408
6.866554644680938
10.712629760640354
20.891014270421383
-1.3566580193376856
16.701020013390327
15.023758279001548
16.487365528449494
12.92418337342729
11.61692374640617
-0.9308796093640237
-1.1091598923941235
7.9643359254913815
6.867202116678335
5.63449310927651
2.732702879831575
6.030661946773498
2.63283503663376
-9.943033344057573
-10.904286219831057
-0.6909926091761713
-21.822199218192974
1.7033770585007466
-5.495573091649549
5.440701808143429
-2.993634304209319
-4.050211204313156
-7.622433134834775
-0.7881897593247302
-1.0110415639441515
-8.747513076498358
-15.114567952743933
-18.835516765067357
-19.383796723649827
-21.658673589083815
-12.655003268550766
-12.404974289022839
-13.366739056463848
-20.84776363746228
0.30670129529701917
-16.60568384419843
-9.84548495930804
-48.356687593262826
-12.122183786367296
-20.629759222885774
5.55505464524209
-1.6372417636664132
-0.14079761500534227
0.5096824567629477
3.797857132809419
-1.491187890806434
0.7072235471094355
1.2670842463362657
-3.230379325527523
-5.033768625992724
7.819013327046316
-8.074820723119847
-0.07136719528370428
-4.2789802073080025
3.2722265587035086
-8.497852648983871
-3.0507327096963492
-3.6787906727728092
3.3609166762803606
-1.9107149208435064
-5.665432057675254
-4.687289794061888
-1.9732913569707682
12.722664646239584
-7.663701738830902
2.864574629401174
-9.763478986880354
-5.4732616248654535
-5.285647923459472
-23.256308008636676
1.429366365590705
6.634343383509594
-2.1803532272981325
-4.554087739828243
2.218809960530819
0.3315736612820088
-1.3704403660020783
6.381932948667159
7.264537133102863
6.58805465526896
2.2298829067304755
0.57264359646252
1.980582536599644
-7.934944313252698
-9.006957029541667
-7.759922088822945
-6.142030063425112
-0.028178385332132905
1.3389328669900848
4.398564220144844
-1.376536216326027
-8.785838880670376
-10.404271425361946
-0.4717499372408849
1.9926383578050304
-14.39372233164129
-10.31380175571897
-10.64032602761131
-8.189380022560513
-13.643695191463022
-4.187508439618352
-11.103261648282373
-22.243907141242303
-38.711672217072
-3.4570044807564635
-32.9782137331274
-10.973900441424737
-20.18120547522977
-7.954330144839131
-27.289608413601023
3.0132241602466836
0.2902436434072637
3.3674134222416034
0.8672002698084498
2.119212449679692
0.21330313905883358
3.3699803561457404
0.6689310908796893
-5.831884635852649
-3.6261906568527813
-0.015915669743839622
-14.632480839657466
0.9505688759305198
0.9444192937244429
4.922013577086164
-1.2420452207908745
-5.377172662574361
-1.332014675164805
-1.6560344068277013
-2.1461468624129623
-5.4565437710830995
-8.00402004116241
-4.225754929785676
-1.9027771334529806
-11.89532043457612
-5.601955869091993
-4.037157938131205
-9.857449115834957
-14.956826257772802
-15.916884058650396
-30.39505215133959
-10.12351632002638
-3.875120614322167
-28.53305481079825
4.431387464725012
-3.5198700238363263
5.71705547849451
4.311375459337675
5.645618641286162
-1.3411393798402838
1.0790574361729988
2.461181984469752
-5.2204047213248295
-10.280799592264636
0.36884205729147856
-43.35307128906648
0.21522323338382154
-4.089935066772362
3.2725364681135742
-0.4242997576534293
-9.218665512048767
-2.8370096285644464
1.7449051971556218
-1.323445923795342
-8.322194669479059
-9.263172071281119
-3.2676479952525983
-0.05604489028544313
-18.05655626125366
-4.19121808125546
-11.00676854543241
-26.47780387270431
-34.3025097123417
-16.99789436642168
-21.263672416686248
-34.0151733903285
-11.47351793651244
-17.43505275439573
0.9727582306746934
-5.22740663714637
7.289548251397184
7.156824260670064
6.432650835067577
2.489827660293055
-1.0056201974634602
5.710277705199131
-8.890624885989872
-2.775575357077745
-13.414633728246947
-10.428064494256882
3.8316941816404815
-6.473257024678254
0.27756118132945184
0.9381247770796293
-8.668756918626745
-0.3491101917106465
2.206182332389684
-4.14819956199163
-5.044650738815527
2.3291843568631254
-16.23938912422998
-16.56330617793295
-24.093456161856793
-11.72299697894253
2.511133712233083
-31.984831648250438
-18.617696172337833
-0.7197870064384959
-22.944634302396288
-13.305367009308311
-10.449785251832523
-14.42911383041058
2.8839136275446897
-19.62501085908685
0.007134603206892631
2.39503340201994
2.245145956570111
2.062809054143697
3.906089085701625
-15.495605597546454
-3.321449168625957
0.549996772477884
-1.784454349023958
-18.11627903606921
-22.53523827300615
3.360851822279147
4.56594351425619
1.0154055102947606
-25.427606559634818
0.22588623313582268
-2.4625704661712304
-1.505973457842193
-2.553187869188454
-3.4510257529473543
-11.122644693194061
-15.659150432058745
-11.786970849649805
-18.33313270866329
-1.0407987216995722
-19.62184813733168
-11.64907381895475
6.266495258623639
-4.570968348410858
0.21100914012446825
-7.957235016606107
3.1307412750289725
2.2486209410103357
5.387871248864167
-0.7919963283177345
1.986866810772605
-8.854111505214771
2.65074757980478
2.3739005221469967
-16.951267917458516
-29.305757647975277
0.8863512372367954
-10.586846360145302
3.379224079186401
-2.934868682337064
5.202201432293908
-17.850265718228368
-0.632480468499754
-2.5298389318964714
-0.74647471306369
-3.0806874699193223
-20.410137118708274
-25.479142252393494
-0.7204668793644031
1.235626688458515
-11.737353747343743
-3.3640483535538466
-23.838487879656128
-7.314060102418926
-18.105421872714775
3.0693233955788464
-14.104840874271495
1.4629938056582144
-16.213012372357486
8.13478351151084
9.627770539791523
-1.406566625390492
2.495266351982739
-0.8881486518660111
4.732549731349405
-4.549893113426539
-8.403116655685317
-14.046144345923286
-5.241335959959898
1.2664821869613685
-4.865895047438349
1.9211503362695406
5.324796074170859
-0.5467287158211747
-2.4939934156265284
-0.8502598111602517
2.0683786484103024
-24.908663674658904
-0.7104760454592538
-8.140662698593562
-12.364229460119125
-20.03353918626028
-4.678320477560609
-4.221269516881241
-10.65071344186891
-9.048252258592855
-7.572311917783149
9.485556552093293
-11.728439888527063
-12.61804748441036
-28.850009993097444
0.8310528865060116
-10.20917316168161
2.1276379578550193
12.26466170038489
7.380428820144948
0.6236707685022378
-12.156969571994756
-8.44958563830911
-1.5208296349465102
-12.924474890865568
4.508158899459306
-6.137000577824255
0.7997590014375495
-4.279849227627401
4.606266649744126
1.1615797633859815
0.2617291157014374
-7.889679852160446
-2.6074444811937822
1.0965259866916341
-8.192787828827525
-16.16020560598642
-18.29095564801826
2.4928051303119916
8.2212563350698
-12.969459599646964
0.6075131253370769
15.926983971052172
7.296878105978107
-12.506969637402355
-27.60994340998196
-20.271864795228925
2.8258755931195934
-5.116525045425876
-10.059304919843862
-4.008375287395626
6.878779904375474
1.5470015448880114
5.274623577739123
-4.6165985147409305
-3.524166665836434
-11.56556428428059
-4.496695211229423
-2.1029920461686697
3.4694795622626593
4.418175202811842
5.177996732589776
5.513440602562796
-7.294523523087298
-3.85613385579839
5.9209502986081795
-2.231572823607869
-24.548623807013023
4.432522737484536
-10.25473520889362
-5.002332052670367
-5.876677124357883
-16.859777643143904
-14.825275104472608
-4.766885868405398
-31.16795065064869
-27.45850881547546
7.1641314871246715
10.767242788052457
-18.209673229421064
-19.18679720233015
-28.27726560335358
-0.53420783309222
-36.99972315474373
-18.102736168305398
-22.851561062315348
1.4738791446794577
-30.372676364532893
-20.3446123210679
-26.161613573996682
-8.50776896182088
-21.719621742064756
-33.57534522580451
-19.55245992403477
-16.482785908693863
-34.612133375508556
0.17990509181134984
-22.59721872320114
-33.84948630503206
-25.488769858502167
-9.268244511939745
-10.0045426579667
-11.067229068335688
5.4275468957034185
-3.9715533815727175
-7.272975489844503
-4.596338343413498
5.370729791412451
4.620536421944578
4.660320048715887
-19.27205322614207
-4.463127432324496
-4.332507641336066
-10.47791503985832
-3.252138613637306
-1.111764952887814
5.096123112006433
5.02579897499168
-11.452764544355533
-5.313060911210606
-4.6673787080253195
-10.345808799851277
-4.285377145733157
3.14679300157541
-20.97415028285845
-8.115828059887319
-22.536455237651907
-17.25864134686488
3.3339159768898337
-7.292565963391844
-15.734515851633537
3.6846120032172354
-13.610672289097156
-3.271823233714715
-21.094909322874294
4.830656880954094
-23.131557793660132
1.6995108403525587
-3.916411708834271
6.158439496869921
3.0168308479076487
4.238999290508454
-28.583093120492197
-4.084342142349533
-4.71137552726034
-1.05920179212861
-4.081850570599862
-4.882755810763192
4.953551230152017
5.090525876422898
-7.653739664783425
-4.3938135343239715
3.7514002584943436
-32.85255410515803
1.010716732830495
-5.562372080482193
-0.5975198750178368
3.9185815545907414
-10.127336397695526
-27.13634664926952
-4.717598995230418
-6.698709384939142
2.696222400083393
-13.894257560046388
-20.26157906142619
5.055125446163996
5.240727913216601
-1.8570683223021751
3.4905811756169154
-2.67993299284917
-9.143317636440248
-26.94786080991874
-0.2993623085948818
-2.08222874995382
3.1117270564705763
6.126252622888055
-2.0107699468975344
-5.59699584986661
-5.08414149947539
8.029420066975817
-3.5854723087846168
-11.080301509544023
-12.497521782252287
3.1630694037408777
-7.867220317976106
0.9561951678502418
-8.820025303405895
-7.1638332739208215
-10.36394971669795
5.201783818833686
-9.16517335687925
8.976733475916621
8.274587780009423
12.048781010098931
-1.7286240146544223
10.484846546414417
-1.791455369368202
-9.635057001768425
-16.55266176374217
-3.219703992092993
14.581335627384053
0.42398756605067756
-2.1896389760982955
4.603191303862422
2.6880422586872146
-0.23480249238065953
-13.967507795361017
-8.983503558742905
-9.50255807799173
-0.31720227847571875
-1.900053027799442
1.7378073704685655
-4.844700448574041
-11.417977029348576
-0.6964510818982443
-21.689933798739244
-11.672115207089092
-2.1184098674306635
-11.706684229121697
2.0981525740809692
-8.458862976206913
-5.11994433966618
-0.6980563151142896
7.783977229410343
-2.5104866458620014
-14.402800538703877
17.80194032328557
-9.640119485673846
-19.992449111335443
-0.9079843605471909
-24.62745147813212
-3.7045059736350687
1.6698138456810396
-7.8553885588653705
13.771398890956823
-1.0147655926361747
6.516166925305182
9.968290863838126
12.585967849981738
1.6296229411779315
2.01451379822308
-20.235390169328603
-29.153371335413286
-39.16134480758298
4.030610503894435
2.0842207008166036
4.695019228634215
-17.230541231191758
4.022274168856153
-2.2479030068101395
-21.37092715639517
2.312529079572549
0.760421421117663
7.436844545814041
-8.52395427645248
-5.906593273656693
-3.075772828439997
-3.494873365578656
-2.3159256295930906
-2.7706923153285814
4.3588425331675245
-8.941049183121754
-3.0495242824763102
-7.64174243454627
6.059736056710285
-6.6105147914974545
-49.27751365181574
-7.251782081825066
0.11183355775147952
-14.027427854101067
4.168309676263846
0.6169266447785584
-23.646284447414935
3.50746194880529
4.714534478208508
-1.5160528008446992
5.1017018531308445
-24.17927777757555
-1.3194292263015925
2.7354941487305235
-24.691416640563226
-26.21221780964258
-24.68873611350221
-7.894678588352189
1.0323953259450458
-21.4632672306916
-8.628102251380703
-8.871962476812142
-6.345746941543307
6.14322295735644
-6.794524794429801
-10.94616071163757
-28.50949380138251
5.306197178975059
6.688244730922355
3.163749629547003
-13.005778517720398
4.0168061550210385
2.151306767404222
0.2492440497711521
-2.4605860551631764
8.942249810057804
3.343162757808251
4.52579235970362
6.451612543334484E-4
-11.241704083642963
-2.840072685204434
-8.261953288823877
2.650732569323088
-13.773924310440805
0.07427250122992302
-1.6324470009366736
-0.3133666369004273
5.984639962434488
11.818276608116104
6.057708941207067
-2.7971397982935478
-18.68691843551867
-0.7414078918685556
7.402273014433378
-30.311880605609954
-11.516543466623878
8.954121675512406
-14.830572559181974
-18.928555155547958
24.054049843338547
1.3772907563678412
-2.837311236756156
-0.25262366103072753
8.185740763817467
8.908617063163382
13.070900996130801
3.9791037639585167
10.861061632154959
-19.806781072994838
-12.388482705688366
6.144969305131089
-2.2770529931172785
5.869478823554686
-6.6504096591894255
-7.223611814734755
-8.726312456851696
7.092280546823982
7.74717963016356
9.776007434843187
-5.258964668696532
7.706133103830244
4.755488999446664
7.02944837340671
1.9888405884584859
3.3046692159111037
-6.185730117097652
3.6703898772159262
-3.2686483269191684
-16.886439288012742
10.377024706213588
4.163086494329987
-5.798630452869304
-28.819611546023502
-1.482116716404694
10.816107943201505
-22.713053075892056
-8.541747663567373
-11.942889966727511
10.49033678254658
-15.384217618918742
-7.663546737846126
-8.284199249699993
8.9796477755547
12.500029944974479
-15.963726752617488
-4.901826768690651
12.303634084254222
12.009898279922385
5.910257509135248
1.7738187326211237
-11.980615570285897
-2.141358824942099
4.442226118931554
5.353342851645352
-4.006758008845707
11.431222952278702
4.940526129028316
-3.851659720159584
4.055403969674789
7.160099384451269
-2.2108934967738914
7.053783552859009
-6.70696348937574
11.652975018369496
-4.772603862568316
11.805543280652149
-33.445742170092615
7.339727089410241
1.0943540881311862
7.956904817957165
8.88894301477189
4.088210030817081
19.06627726624296
-9.211189940824388
-2.3991566616231026
13.405367503867994
19.9988114328715
-9.709195282113019
31.344950856824166
4.628939987025855
13.832181389689692
27.653927313949033
5.802536920961937
1.635064519713894
-8.017890362047934
-7.232553657842072
-9.685290693359716
-12.528071985646132
3.5448064091735874
-8.831349702096624
3.003099512926793
5.125405697977556
-6.46377276284723
7.101388651620563
-8.63490290633565
-7.3664311923294
4.742232643958788
-9.259827491324632
-0.3967001517483981
-14.605589299575913
-8.363524172987683
-8.39669915497012
7.759750498446633
3.6313604724152997
5.5913318577069795
-8.466769284513793
8.1164848483742
-5.81619385240754
3.006410641875129
-2.6169534723282832
5.894669201828018
5.973925401480487
-6.277987660143838
4.498250999754127
-12.161876916173588
5.137512710245046
-1.381629836815363
5.070878427647725
3.785916146549938
-7.786756482996622
-4.878033054841696
-4.594834579421029
8.182048578969978
8.858779297582327
3.7997789934328052
-1.3726564717628627
0.3786449441976143
13.04055489419257
17.812635979278962
-1.007679628483268
-2.6390949011565312
-15.502570656560104
-2.4270138786923416
0.21648050501681526
-16.868275096129455
-8.81258804025081
33.667739059077086
26.10073669235948
11.793968977536045
-0.7460613180022331
-2.6372043569448542
13.363997253310066
2.279476647896364
5.893151587435056
3.683979297756257
6.622002884108541
7.191762828238878
21.419882514454386
6.2684239477878565
-3.45070652136839
-4.344550948772732
22.684207267118598
19.561758343822618
8.594855002621284
1.120120644667518
-11.428799403202667
12.837111817777368
18.124564531504905
-5.411052348480386
-2.362599067080378
10.186191781148553
7.681021262234632
11.545370517283915
-2.881416499188772
-2.7380646513104807
-11.246927126120708
4.621940380161355
5.39948668687519
0.8554796551069718
9.656473791888766
6.167400807356203
-1.8896477311887019
1.0203841985126516
19.457598211867726
16.338038385285376
19.10049090579698
-1.74592796100623
0.8408717340932768
14.104257515619173
4.578658981687024
-5.29237207174106
6.79094817595606
6.642436682169894
14.728850633881468
4.722620040871401
-7.626295086163425
2.8553980083712966
0.6446960398386132
15.746282197057068
27.90746267549687
8.837470408546428
10.851872855244318
10.167507591299753
-3.0981949620722284
4.499267271858304
5.00952145645228
18.309590909113282
9.741955515897997
5.62823520866062
3.7775567733072726
3.4347704324213946
3.2386464140700943
10.63418639148416
5.232851814859939
-2.2773649131409686
-6.143953234427404
17.33502238786641
0.9891769638912741
0.5240700084803482
19.62465873227361
7.273880010941617
52.01822301375331
17.042087133862236
0.0039029443178477674
21.461527504317726
-6.2544072955387415
-1.4949926480814588
2.2091643787457347
8.717468305140077
16.00213877556462
17.06000964555167
-10.057366866562383
19.344200996268018
12.48332350145442
-7.904491206482408
15.217756597477084
11.755298919279072
-3.4002021482645
12.794808819805422
0.27866649948277855
14.587050555711738
4.76178127745475
22.416279466420423
32.76730621012455
-3.17187214716877
4.38930844642604
-6.3896831032005394
2.193229440897425
0.255818469596345
7.16091527557222
-3.2486520876294898
6.777674681339102
-1.2539936194756616
-2.020595641786358
7.765077255373714
8.37022844129672
18.694041531471314
8.593521595977151
15.195215619628105
6.011260977524066
7.905874753076143
6.78041269040758
14.954754448575205
13.492449667863838
4.753104457252267
5.1279943797107554
12.01239821313197
-9.71593209741802
-29.866797668431534
-25.146290390920463
-5.4223765401688855
-22.30874692424736
-14.06774651859928
-27.351672077881418
-20.347243707438494
11.638439938820493
4.634925089636293
-2.599745541798471
6.593033706064294
-0.14572002432959819
-9.214331631246061
2.64894353765514
14.702139074054234
17.267729895013822
1.1737069138369571
-23.564374485504093
43.308418657838665
10.96182397456242
9.412680556841245
-7.97316514920626
4.801421598818269
7.065090143810593
-3.8387001711974302
5.745480487008404
0.7196060492222578
12.830009673737218
13.94591121254573
19.16390502576404
32.57255681840315
11.222407785525402
6.89372041049304
6.586853526495532
15.778615086413161
5.153399502309405
20.554458099647178
1.896068135535882
13.764855288632399
13.27580373536771
5.841922687135321
16.875474221589425
1.3301745932183326
24.026902114692106
19.65752546854982
17.204922697828742
-5.648771733607604
-8.027615189600064
-0.40810203154371516
23.281485055717145
25.848497134859315
11.638107627965656
16.121739351059055
3.431239029455108
5.467664165385549
5.077155710255875
43.5533411030423
61.14791848435505
14.466345227477566
11.564983375859892
10.996631415398104
-10.13234153135022
13.341619048890383
26.142666062140076
8.193124631374847
7.9245235172215525
9.18216806506911
15.167502159378062
4.622640079313738
50.054707178094226
2.818742988141917
31.469221236236475
24.294437551238488
21.62244148334479
-14.366340509043217
14.066804889868699
4.882928064387581
3.680493736481065
22.54923060730378
-6.7822210177757976
11.566371031494853
15.4510144236751
10.012725758091516
15.607201796779336
11.772958174347828
19.703007435802597
5.925671374460494
-0.31340728662815476
10.895640043435195
4.19755884617745
8.989372685668833
3.0934952465057655
5.89728156003415
17.241200419489427
-5.89671605812661
